<?xml version="1.0"?>
<opencv_storage>
<cascade>
  <stageType>BOOST</stageType>
  <featureType>HAAR</featureType>
  <height>22</height>
  <width>22</width>
  <stageParams>
    <boostType>GAB</boostType>
    <minHitRate>9.9500000476837158e-01</minHitRate>
    <maxFalseAlarm>5.0000000000000000e-01</maxFalseAlarm>
    <weightTrimRate>9.4999999999999996e-01</weightTrimRate>
    <maxDepth>1</maxDepth>
    <maxWeakCount>100</maxWeakCount></stageParams>
  <featureParams>
    <maxCatCount>0</maxCatCount>
    <featSize>1</featSize>
    <mode>BASIC</mode></featureParams>
  <stageNum>9</stageNum>
  <stages>
    <!-- stage 0 -->
    <_>
      <maxWeakCount>3</maxWeakCount>
      <stageThreshold>-1.5994724035263062e+00</stageThreshold>
      <weakClassifiers>
        <_>
          <internalNodes>
            0 -1 34 -6.2052268534898758e-02</internalNodes>
          <leafValues>
            -9.5480227470397949e-01 -4.3307086825370789e-01</leafValues></_>
        <_>
          <internalNodes>
            0 -1 5 -2.6026761159300804e-02</internalNodes>
          <leafValues>
            3.1231403350830078e-01 -7.3083829879760742e-01</leafValues></_>
        <_>
          <internalNodes>
            0 -1 42 -2.5544069707393646e-02</internalNodes>
          <leafValues>
            -9.5698422193527222e-01 2.8284996747970581e-01</leafValues></_></weakClassifiers></_>
    <!-- stage 1 -->
    <_>
      <maxWeakCount>5</maxWeakCount>
      <stageThreshold>-1.4639866352081299e+00</stageThreshold>
      <weakClassifiers>
        <_>
          <internalNodes>
            0 -1 2 -9.9546879529953003e-02</internalNodes>
          <leafValues>
            5.5555558204650879e-01 -8.7365174293518066e-01</leafValues></_>
        <_>
          <internalNodes>
            0 -1 23 8.8621616363525391e-02</internalNodes>
          <leafValues>
            -5.6071960926055908e-01 5.7298588752746582e-01</leafValues></_>
        <_>
          <internalNodes>
            0 -1 21 -6.7330203019082546e-03</internalNodes>
          <leafValues>
            4.4827803969383240e-01 -5.0367069244384766e-01</leafValues></_>
        <_>
          <internalNodes>
            0 -1 8 -6.2797029386274517e-05</internalNodes>
          <leafValues>
            3.0471932888031006e-01 -6.1762851476669312e-01</leafValues></_>
        <_>
          <internalNodes>
            0 -1 10 3.8166617741808295e-04</internalNodes>
          <leafValues>
            2.3470233380794525e-01 -7.8261262178421021e-01</leafValues></_></weakClassifiers></_>
    <!-- stage 2 -->
    <_>
      <maxWeakCount>4</maxWeakCount>
      <stageThreshold>-1.3410745859146118e+00</stageThreshold>
      <weakClassifiers>
        <_>
          <internalNodes>
            0 -1 31 -1.2001981586217880e-01</internalNodes>
          <leafValues>
            2.9411765933036804e-01 -8.8455539941787720e-01</leafValues></_>
        <_>
          <internalNodes>
            0 -1 51 -9.8950468003749847e-02</internalNodes>
          <leafValues>
            1.8122696876525879e-01 -6.2650907039642334e-01</leafValues></_>
        <_>
          <internalNodes>
            0 -1 52 4.9477326683700085e-04</internalNodes>
          <leafValues>
            1.5481543540954590e-01 -8.5873854160308838e-01</leafValues></_>
        <_>
          <internalNodes>
            0 -1 47 -5.4783502127975225e-04</internalNodes>
          <leafValues>
            -7.3791968822479248e-01 2.2099238634109497e-01</leafValues></_></weakClassifiers></_>
    <!-- stage 3 -->
    <_>
      <maxWeakCount>8</maxWeakCount>
      <stageThreshold>-1.7985980510711670e+00</stageThreshold>
      <weakClassifiers>
        <_>
          <internalNodes>
            0 -1 30 1.0628927499055862e-02</internalNodes>
          <leafValues>
            -8.7116563320159912e-01 1.</leafValues></_>
        <_>
          <internalNodes>
            0 -1 26 -5.3272485733032227e-02</internalNodes>
          <leafValues>
            4.0818488597869873e-01 -5.7651746273040771e-01</leafValues></_>
        <_>
          <internalNodes>
            0 -1 15 -2.5242935866117477e-02</internalNodes>
          <leafValues>
            3.6147731542587280e-01 -4.5468601584434509e-01</leafValues></_>
        <_>
          <internalNodes>
            0 -1 27 -9.0248271590098739e-05</internalNodes>
          <leafValues>
            -6.7639160156250000e-01 2.5830376148223877e-01</leafValues></_>
        <_>
          <internalNodes>
            0 -1 19 -5.9516583860386163e-05</internalNodes>
          <leafValues>
            -6.3293099403381348e-01 2.5696927309036255e-01</leafValues></_>
        <_>
          <internalNodes>
            0 -1 7 -4.1152462363243103e-02</internalNodes>
          <leafValues>
            -5.8938306570053101e-01 2.6868429780006409e-01</leafValues></_>
        <_>
          <internalNodes>
            0 -1 33 -2.8081219643354416e-02</internalNodes>
          <leafValues>
            5.2652192115783691e-01 -3.4922263026237488e-01</leafValues></_>
        <_>
          <internalNodes>
            0 -1 37 -2.6987195014953613e-03</internalNodes>
          <leafValues>
            5.8931583166122437e-01 -3.3096367120742798e-01</leafValues></_></weakClassifiers></_>
    <!-- stage 4 -->
    <_>
      <maxWeakCount>7</maxWeakCount>
      <stageThreshold>-1.3253339529037476e+00</stageThreshold>
      <weakClassifiers>
        <_>
          <internalNodes>
            0 -1 36 1.8277361989021301e-02</internalNodes>
          <leafValues>
            -8.6830013990402222e-01 1.</leafValues></_>
        <_>
          <internalNodes>
            0 -1 18 3.6203376948833466e-02</internalNodes>
          <leafValues>
            -5.3983259201049805e-01 5.2881038188934326e-01</leafValues></_>
        <_>
          <internalNodes>
            0 -1 48 2.2509545087814331e-03</internalNodes>
          <leafValues>
            1.3143144547939301e-01 -8.6884742975234985e-01</leafValues></_>
        <_>
          <internalNodes>
            0 -1 12 -6.3048982992768288e-03</internalNodes>
          <leafValues>
            4.0152531862258911e-01 -3.5728898644447327e-01</leafValues></_>
        <_>
          <internalNodes>
            0 -1 20 -1.8002372235059738e-02</internalNodes>
          <leafValues>
            -6.6778248548507690e-01 2.5083735585212708e-01</leafValues></_>
        <_>
          <internalNodes>
            0 -1 35 1.5431563369929790e-02</internalNodes>
          <leafValues>
            -2.8569930791854858e-01 5.4762357473373413e-01</leafValues></_>
        <_>
          <internalNodes>
            0 -1 24 -4.8091262578964233e-02</internalNodes>
          <leafValues>
            5.0332385301589966e-01 -3.6727386713027954e-01</leafValues></_></weakClassifiers></_>
    <!-- stage 5 -->
    <_>
      <maxWeakCount>5</maxWeakCount>
      <stageThreshold>-1.5517623424530029e+00</stageThreshold>
      <weakClassifiers>
        <_>
          <internalNodes>
            0 -1 29 2.2174718976020813e-01</internalNodes>
          <leafValues>
            -8.7076920270919800e-01 5.0000000000000000e-01</leafValues></_>
        <_>
          <internalNodes>
            0 -1 44 2.5153083726763725e-02</internalNodes>
          <leafValues>
            -6.2882930040359497e-01 3.7684749811887741e-02</leafValues></_>
        <_>
          <internalNodes>
            0 -1 11 3.4904381027445197e-04</internalNodes>
          <leafValues>
            1.6489486396312714e-01 -7.1878170967102051e-01</leafValues></_>
        <_>
          <internalNodes>
            0 -1 38 5.9180390089750290e-03</internalNodes>
          <leafValues>
            -4.0292707085609436e-01 3.9405933022499084e-01</leafValues></_>
        <_>
          <internalNodes>
            0 -1 50 -9.8665535915642977e-04</internalNodes>
          <leafValues>
            -1. 1.8586839735507965e-01</leafValues></_></weakClassifiers></_>
    <!-- stage 6 -->
    <_>
      <maxWeakCount>7</maxWeakCount>
      <stageThreshold>-1.7092013359069824e+00</stageThreshold>
      <weakClassifiers>
        <_>
          <internalNodes>
            0 -1 41 -2.4575231596827507e-02</internalNodes>
          <leafValues>
            4.5454546809196472e-01 -8.7635236978530884e-01</leafValues></_>
        <_>
          <internalNodes>
            0 -1 17 -1.2798087671399117e-02</internalNodes>
          <leafValues>
            1.7055524513125420e-02 -6.7610573768615723e-01</leafValues></_>
        <_>
          <internalNodes>
            0 -1 22 -1.1055694893002510e-02</internalNodes>
          <leafValues>
            5.3198057413101196e-01 -3.2265836000442505e-01</leafValues></_>
        <_>
          <internalNodes>
            0 -1 40 5.3970818407833576e-04</internalNodes>
          <leafValues>
            2.7282497286796570e-01 -5.2564537525177002e-01</leafValues></_>
        <_>
          <internalNodes>
            0 -1 38 5.9005497023463249e-03</internalNodes>
          <leafValues>
            -4.0188404917716980e-01 3.6879944801330566e-01</leafValues></_>
        <_>
          <internalNodes>
            0 -1 43 -1.0334737598896027e-03</internalNodes>
          <leafValues>
            -4.7110724449157715e-01 3.7805911898612976e-01</leafValues></_>
        <_>
          <internalNodes>
            0 -1 32 -1.9455207511782646e-03</internalNodes>
          <leafValues>
            1.0070711374282837e-01 -1.</leafValues></_></weakClassifiers></_>
    <!-- stage 7 -->
    <_>
      <maxWeakCount>8</maxWeakCount>
      <stageThreshold>-1.7236963510513306e+00</stageThreshold>
      <weakClassifiers>
        <_>
          <internalNodes>
            0 -1 9 2.4328172206878662e-01</internalNodes>
          <leafValues>
            -8.7096774578094482e-01 7.1428573131561279e-01</leafValues></_>
        <_>
          <internalNodes>
            0 -1 14 -1.6515225172042847e-01</internalNodes>
          <leafValues>
            4.0801993012428284e-01 -5.6390070915222168e-01</leafValues></_>
        <_>
          <internalNodes>
            0 -1 4 -7.5397357344627380e-02</internalNodes>
          <leafValues>
            -9.5731580257415771e-01 7.8838862478733063e-02</leafValues></_>
        <_>
          <internalNodes>
            0 -1 39 -4.0913410484790802e-02</internalNodes>
          <leafValues>
            5.3424239158630371e-01 -2.6477518677711487e-01</leafValues></_>
        <_>
          <internalNodes>
            0 -1 25 -2.7129203081130981e-01</internalNodes>
          <leafValues>
            -5.6448578834533691e-01 2.3301488161087036e-01</leafValues></_>
        <_>
          <internalNodes>
            0 -1 1 -9.9804311990737915e-02</internalNodes>
          <leafValues>
            4.6342694759368896e-01 -4.1566255688667297e-01</leafValues></_>
        <_>
          <internalNodes>
            0 -1 46 -1.6564091667532921e-02</internalNodes>
          <leafValues>
            7.4695909023284912e-01 -2.1135610342025757e-01</leafValues></_>
        <_>
          <internalNodes>
            0 -1 45 4.9240668886341155e-05</internalNodes>
          <leafValues>
            2.9111224412918091e-01 -4.8418742418289185e-01</leafValues></_></weakClassifiers></_>
    <!-- stage 8 -->
    <_>
      <maxWeakCount>7</maxWeakCount>
      <stageThreshold>-1.7478153705596924e+00</stageThreshold>
      <weakClassifiers>
        <_>
          <internalNodes>
            0 -1 16 4.1153438389301300e-02</internalNodes>
          <leafValues>
            -8.6809813976287842e-01 6.6666668653488159e-01</leafValues></_>
        <_>
          <internalNodes>
            0 -1 28 1.4279556460678577e-02</internalNodes>
          <leafValues>
            -5.2815306186676025e-01 4.7887581586837769e-01</leafValues></_>
        <_>
          <internalNodes>
            0 -1 49 1.0627316078171134e-04</internalNodes>
          <leafValues>
            -5.8693182468414307e-01 2.5424820184707642e-01</leafValues></_>
        <_>
          <internalNodes>
            0 -1 0 7.5939038651995361e-05</internalNodes>
          <leafValues>
            2.2114825248718262e-01 -5.7945513725280762e-01</leafValues></_>
        <_>
          <internalNodes>
            0 -1 6 5.4732151329517365e-04</internalNodes>
          <leafValues>
            1.8663565814495087e-01 -8.2929557561874390e-01</leafValues></_>
        <_>
          <internalNodes>
            0 -1 3 1.3679070398211479e-03</internalNodes>
          <leafValues>
            1.1753690987825394e-01 -8.4223008155822754e-01</leafValues></_>
        <_>
          <internalNodes>
            0 -1 13 1.0047930118162185e-04</internalNodes>
          <leafValues>
            2.4066792428493500e-01 -4.9637863039970398e-01</leafValues></_></weakClassifiers></_></stages>
  <features>
    <_>
      <rects>
        <_>
          0 0 2 4 -1.</_>
        <_>
          0 0 1 2 2.</_>
        <_>
          1 2 1 2 2.</_></rects>
      <tilted>0</tilted></_>
    <_>
      <rects>
        <_>
          0 1 5 9 -1.</_>
        <_>
          0 4 5 3 2.</_></rects>
      <tilted>0</tilted></_>
    <_>
      <rects>
        <_>
          0 3 10 10 -1.</_>
        <_>
          0 3 5 5 2.</_>
        <_>
          5 8 5 5 2.</_></rects>
      <tilted>0</tilted></_>
    <_>
      <rects>
        <_>
          0 4 4 2 -1.</_>
        <_>
          0 5 4 1 2.</_></rects>
      <tilted>0</tilted></_>
    <_>
      <rects>
        <_>
          0 9 2 12 -1.</_>
        <_>
          0 13 2 4 2.</_></rects>
      <tilted>0</tilted></_>
    <_>
      <rects>
        <_>
          0 9 10 4 -1.</_>
        <_>
          5 9 5 4 2.</_></rects>
      <tilted>0</tilted></_>
    <_>
      <rects>
        <_>
          0 14 1 2 -1.</_>
        <_>
          0 15 1 1 2.</_></rects>
      <tilted>0</tilted></_>
    <_>
      <rects>
        <_>
          1 1 1 18 -1.</_>
        <_>
          1 7 1 6 2.</_></rects>
      <tilted>0</tilted></_>
    <_>
      <rects>
        <_>
          1 3 2 4 -1.</_>
        <_>
          1 3 1 2 2.</_>
        <_>
          2 5 1 2 2.</_></rects>
      <tilted>0</tilted></_>
    <_>
      <rects>
        <_>
          1 5 20 12 -1.</_>
        <_>
          1 5 10 6 2.</_>
        <_>
          11 11 10 6 2.</_></rects>
      <tilted>0</tilted></_>
    <_>
      <rects>
        <_>
          1 7 2 8 -1.</_>
        <_>
          2 7 1 8 2.</_></rects>
      <tilted>0</tilted></_>
    <_>
      <rects>
        <_>
          1 11 1 4 -1.</_>
        <_>
          1 13 1 2 2.</_></rects>
      <tilted>0</tilted></_>
    <_>
      <rects>
        <_>
          1 15 8 2 -1.</_>
        <_>
          5 15 4 2 2.</_></rects>
      <tilted>0</tilted></_>
    <_>
      <rects>
        <_>
          1 20 4 2 -1.</_>
        <_>
          1 20 2 1 2.</_>
        <_>
          3 21 2 1 2.</_></rects>
      <tilted>0</tilted></_>
    <_>
      <rects>
        <_>
          2 1 18 14 -1.</_>
        <_>
          2 1 9 7 2.</_>
        <_>
          11 8 9 7 2.</_></rects>
      <tilted>0</tilted></_>
    <_>
      <rects>
        <_>
          2 3 11 6 -1.</_>
        <_>
          2 6 11 3 2.</_></rects>
      <tilted>0</tilted></_>
    <_>
      <rects>
        <_>
          2 4 3 6 -1.</_>
        <_>
          2 7 3 3 2.</_></rects>
      <tilted>0</tilted></_>
    <_>
      <rects>
        <_>
          2 4 9 4 -1.</_>
        <_>
          2 6 9 2 2.</_></rects>
      <tilted>0</tilted></_>
    <_>
      <rects>
        <_>
          2 10 8 6 -1.</_>
        <_>
          2 10 4 3 2.</_>
        <_>
          6 13 4 3 2.</_></rects>
      <tilted>0</tilted></_>
    <_>
      <rects>
        <_>
          3 2 6 2 -1.</_>
        <_>
          3 2 3 1 2.</_>
        <_>
          6 3 3 1 2.</_></rects>
      <tilted>0</tilted></_>
    <_>
      <rects>
        <_>
          3 8 4 14 -1.</_>
        <_>
          3 15 4 7 2.</_></rects>
      <tilted>0</tilted></_>
    <_>
      <rects>
        <_>
          4 11 12 1 -1.</_>
        <_>
          10 11 6 1 2.</_></rects>
      <tilted>0</tilted></_>
    <_>
      <rects>
        <_>
          4 17 8 4 -1.</_>
        <_>
          4 17 4 2 2.</_>
        <_>
          8 19 4 2 2.</_></rects>
      <tilted>0</tilted></_>
    <_>
      <rects>
        <_>
          5 3 16 8 -1.</_>
        <_>
          5 3 8 4 2.</_>
        <_>
          13 7 8 4 2.</_></rects>
      <tilted>0</tilted></_>
    <_>
      <rects>
        <_>
          5 9 10 7 -1.</_>
        <_>
          10 9 5 7 2.</_></rects>
      <tilted>0</tilted></_>
    <_>
      <rects>
        <_>
          6 7 12 11 -1.</_>
        <_>
          10 7 4 11 2.</_></rects>
      <tilted>0</tilted></_>
    <_>
      <rects>
        <_>
          6 18 14 3 -1.</_>
        <_>
          13 18 7 3 2.</_></rects>
      <tilted>0</tilted></_>
    <_>
      <rects>
        <_>
          7 0 2 2 -1.</_>
        <_>
          7 0 1 1 2.</_>
        <_>
          8 1 1 1 2.</_></rects>
      <tilted>0</tilted></_>
    <_>
      <rects>
        <_>
          7 2 3 4 -1.</_>
        <_>
          7 4 3 2 2.</_></rects>
      <tilted>0</tilted></_>
    <_>
      <rects>
        <_>
          8 3 14 18 -1.</_>
        <_>
          8 3 7 9 2.</_>
        <_>
          15 12 7 9 2.</_></rects>
      <tilted>0</tilted></_>
    <_>
      <rects>
        <_>
          9 2 1 4 -1.</_>
        <_>
          9 4 1 2 2.</_></rects>
      <tilted>0</tilted></_>
    <_>
      <rects>
        <_>
          10 6 12 12 -1.</_>
        <_>
          10 6 6 6 2.</_>
        <_>
          16 12 6 6 2.</_></rects>
      <tilted>0</tilted></_>
    <_>
      <rects>
        <_>
          10 7 3 1 -1.</_>
        <_>
          11 7 1 1 2.</_></rects>
      <tilted>0</tilted></_>
    <_>
      <rects>
        <_>
          11 0 9 6 -1.</_>
        <_>
          11 3 9 3 2.</_></rects>
      <tilted>0</tilted></_>
    <_>
      <rects>
        <_>
          12 2 3 11 -1.</_>
        <_>
          13 2 1 11 2.</_></rects>
      <tilted>0</tilted></_>
    <_>
      <rects>
        <_>
          12 5 3 8 -1.</_>
        <_>
          12 9 3 4 2.</_></rects>
      <tilted>0</tilted></_>
    <_>
      <rects>
        <_>
          12 6 4 4 -1.</_>
        <_>
          12 6 2 2 2.</_>
        <_>
          14 8 2 2 2.</_></rects>
      <tilted>0</tilted></_>
    <_>
      <rects>
        <_>
          12 7 6 2 -1.</_>
        <_>
          12 7 3 1 2.</_>
        <_>
          15 8 3 1 2.</_></rects>
      <tilted>0</tilted></_>
    <_>
      <rects>
        <_>
          12 8 4 11 -1.</_>
        <_>
          14 8 2 11 2.</_></rects>
      <tilted>0</tilted></_>
    <_>
      <rects>
        <_>
          12 8 3 6 -1.</_>
        <_>
          12 10 3 2 2.</_></rects>
      <tilted>0</tilted></_>
    <_>
      <rects>
        <_>
          12 14 2 6 -1.</_>
        <_>
          12 17 2 3 2.</_></rects>
      <tilted>0</tilted></_>
    <_>
      <rects>
        <_>
          12 15 6 2 -1.</_>
        <_>
          15 15 3 2 2.</_></rects>
      <tilted>0</tilted></_>
    <_>
      <rects>
        <_>
          13 2 3 3 -1.</_>
        <_>
          14 2 1 3 2.</_></rects>
      <tilted>0</tilted></_>
    <_>
      <rects>
        <_>
          13 14 5 8 -1.</_>
        <_>
          13 18 5 4 2.</_></rects>
      <tilted>0</tilted></_>
    <_>
      <rects>
        <_>
          14 2 8 5 -1.</_>
        <_>
          18 2 4 5 2.</_></rects>
      <tilted>0</tilted></_>
    <_>
      <rects>
        <_>
          14 10 2 6 -1.</_>
        <_>
          14 10 1 3 2.</_>
        <_>
          15 13 1 3 2.</_></rects>
      <tilted>0</tilted></_>
    <_>
      <rects>
        <_>
          15 1 6 6 -1.</_>
        <_>
          15 1 3 3 2.</_>
        <_>
          18 4 3 3 2.</_></rects>
      <tilted>0</tilted></_>
    <_>
      <rects>
        <_>
          15 6 2 12 -1.</_>
        <_>
          16 6 1 12 2.</_></rects>
      <tilted>0</tilted></_>
    <_>
      <rects>
        <_>
          15 13 6 2 -1.</_>
        <_>
          15 14 6 1 2.</_></rects>
      <tilted>0</tilted></_>
    <_>
      <rects>
        <_>
          16 6 2 3 -1.</_>
        <_>
          17 6 1 3 2.</_></rects>
      <tilted>0</tilted></_>
    <_>
      <rects>
        <_>
          16 13 1 2 -1.</_>
        <_>
          16 14 1 1 2.</_></rects>
      <tilted>0</tilted></_>
    <_>
      <rects>
        <_>
          16 16 6 6 -1.</_>
        <_>
          16 18 6 2 2.</_></rects>
      <tilted>0</tilted></_>
    <_>
      <rects>
        <_>
          18 0 3 2 -1.</_>
        <_>
          18 1 3 1 2.</_></rects>
      <tilted>0</tilted></_></features></cascade>
</opencv_storage>
