<?xml version="1.0"?>
<opencv_storage>
<cascade>
  <stageType>BOOST</stageType>
  <featureType>HAAR</featureType>
  <height>40</height>
  <width>80</width>
  <stageParams>
    <boostType>GAB</boostType>
    <minHitRate>9.9900001287460327e-01</minHitRate>
    <maxFalseAlarm>5.0000000000000000e-01</maxFalseAlarm>
    <weightTrimRate>9.4999999999999996e-01</weightTrimRate>
    <maxDepth>1</maxDepth>
    <maxWeakCount>100</maxWeakCount></stageParams>
  <featureParams>
    <maxCatCount>0</maxCatCount>
    <featSize>1</featSize>
    <mode>ALL</mode></featureParams>
  <stageNum>15</stageNum>
  <stages>
    <!-- stage 0 -->
    <_>
      <maxWeakCount>2</maxWeakCount>
      <stageThreshold>-7.9103851318359375e-01</stageThreshold>
      <weakClassifiers>
        <_>
          <internalNodes>
            0 -1 10 -8.7896585464477539e-03</internalNodes>
          <leafValues>
            1.7499999701976776e-01 -9.8340249061584473e-01</leafValues></_>
        <_>
          <internalNodes>
            0 -1 12 1.0122649371623993e-02</internalNodes>
          <leafValues>
            -9.6603852510452271e-01 3.2728943228721619e-01</leafValues></_></weakClassifiers></_>
    <!-- stage 1 -->
    <_>
      <maxWeakCount>2</maxWeakCount>
      <stageThreshold>-7.5752860307693481e-01</stageThreshold>
      <weakClassifiers>
        <_>
          <internalNodes>
            0 -1 21 -2.2585755214095116e-03</internalNodes>
          <leafValues>
            2.4528302252292633e-01 -9.2927306890487671e-01</leafValues></_>
        <_>
          <internalNodes>
            0 -1 22 -1.1394664179533720e-03</internalNodes>
          <leafValues>
            1.7174448072910309e-01 -1.</leafValues></_></weakClassifiers></_>
    <!-- stage 2 -->
    <_>
      <maxWeakCount>2</maxWeakCount>
      <stageThreshold>-7.4196916818618774e-01</stageThreshold>
      <weakClassifiers>
        <_>
          <internalNodes>
            0 -1 38 -1.0937251150608063e-02</internalNodes>
          <leafValues>
            3.5483869910240173e-01 -8.8700562715530396e-01</leafValues></_>
        <_>
          <internalNodes>
            0 -1 5 1.4972567558288574e-02</internalNodes>
          <leafValues>
            -9.9103558063507080e-01 1.4503647387027740e-01</leafValues></_></weakClassifiers></_>
    <!-- stage 3 -->
    <_>
      <maxWeakCount>3</maxWeakCount>
      <stageThreshold>-1.4887248277664185e+00</stageThreshold>
      <weakClassifiers>
        <_>
          <internalNodes>
            0 -1 16 2.5567379780113697e-03</internalNodes>
          <leafValues>
            -8.7108653783798218e-01 6.8421053886413574e-01</leafValues></_>
        <_>
          <internalNodes>
            0 -1 41 1.9116292241960764e-03</internalNodes>
          <leafValues>
            -8.9294952154159546e-01 2.6962462067604065e-01</leafValues></_>
        <_>
          <internalNodes>
            0 -1 30 -5.4814864415675402e-04</internalNodes>
          <leafValues>
            3.6723068356513977e-01 -8.8726294040679932e-01</leafValues></_></weakClassifiers></_>
    <!-- stage 4 -->
    <_>
      <maxWeakCount>3</maxWeakCount>
      <stageThreshold>-1.4497425556182861e+00</stageThreshold>
      <weakClassifiers>
        <_>
          <internalNodes>
            0 -1 28 -3.0249080155044794e-03</internalNodes>
          <leafValues>
            6.6666668653488159e-01 -8.6764705181121826e-01</leafValues></_>
        <_>
          <internalNodes>
            0 -1 23 1.0764998150989413e-03</internalNodes>
          <leafValues>
            -9.3581664562225342e-01 2.3542667925357819e-01</leafValues></_>
        <_>
          <internalNodes>
            0 -1 40 3.6324192769825459e-03</internalNodes>
          <leafValues>
            -8.1752216815948486e-01 3.6555194854736328e-01</leafValues></_></weakClassifiers></_>
    <!-- stage 5 -->
    <_>
      <maxWeakCount>3</maxWeakCount>
      <stageThreshold>-1.4294571876525879e+00</stageThreshold>
      <weakClassifiers>
        <_>
          <internalNodes>
            0 -1 33 1.4441080857068300e-03</internalNodes>
          <leafValues>
            -8.6422020196914673e-01 6.4705884456634521e-01</leafValues></_>
        <_>
          <internalNodes>
            0 -1 14 1.3340233999770135e-04</internalNodes>
          <leafValues>
            -8.2593202590942383e-01 2.3844391107559204e-01</leafValues></_>
        <_>
          <internalNodes>
            0 -1 3 4.2372834868729115e-03</internalNodes>
          <leafValues>
            2.6069504022598267e-01 -1.</leafValues></_></weakClassifiers></_>
    <!-- stage 6 -->
    <_>
      <maxWeakCount>3</maxWeakCount>
      <stageThreshold>-1.3027447462081909e+00</stageThreshold>
      <weakClassifiers>
        <_>
          <internalNodes>
            0 -1 20 5.8062210679054260e-02</internalNodes>
          <leafValues>
            -8.6740332841873169e-01 5.7894736528396606e-01</leafValues></_>
        <_>
          <internalNodes>
            0 -1 1 -6.7973077297210693e-02</internalNodes>
          <leafValues>
            5.3213608264923096e-01 -7.2396618127822876e-01</leafValues></_>
        <_>
          <internalNodes>
            0 -1 25 -4.3802941218018532e-03</internalNodes>
          <leafValues>
            -9.6747756004333496e-01 3.8399437069892883e-01</leafValues></_></weakClassifiers></_>
    <!-- stage 7 -->
    <_>
      <maxWeakCount>3</maxWeakCount>
      <stageThreshold>-1.1371302604675293e+00</stageThreshold>
      <weakClassifiers>
        <_>
          <internalNodes>
            0 -1 37 -4.7801136970520020e-03</internalNodes>
          <leafValues>
            7.3333334922790527e-01 -8.6106032133102417e-01</leafValues></_>
        <_>
          <internalNodes>
            0 -1 29 5.4066284792497754e-04</internalNodes>
          <leafValues>
            -7.3044908046722412e-01 4.5704916119575500e-01</leafValues></_>
        <_>
          <internalNodes>
            0 -1 27 3.6290165735408664e-04</internalNodes>
          <leafValues>
            -7.2281223535537720e-01 4.5437914133071899e-01</leafValues></_></weakClassifiers></_>
    <!-- stage 8 -->
    <_>
      <maxWeakCount>3</maxWeakCount>
      <stageThreshold>-1.2534503936767578e+00</stageThreshold>
      <weakClassifiers>
        <_>
          <internalNodes>
            0 -1 4 4.6448349952697754e-02</internalNodes>
          <leafValues>
            -8.8593155145645142e-01 1.6666667163372040e-01</leafValues></_>
        <_>
          <internalNodes>
            0 -1 0 -3.3531926572322845e-02</internalNodes>
          <leafValues>
            5.9528237581253052e-01 -6.3802176713943481e-01</leafValues></_>
        <_>
          <internalNodes>
            0 -1 6 -2.8079475741833448e-03</internalNodes>
          <leafValues>
            4.2385283112525940e-01 -7.8209525346755981e-01</leafValues></_></weakClassifiers></_>
    <!-- stage 9 -->
    <_>
      <maxWeakCount>3</maxWeakCount>
      <stageThreshold>-1.3469910621643066e+00</stageThreshold>
      <weakClassifiers>
        <_>
          <internalNodes>
            0 -1 17 2.6026703417301178e-02</internalNodes>
          <leafValues>
            -8.5766422748565674e-01 7.1428573131561279e-01</leafValues></_>
        <_>
          <internalNodes>
            0 -1 13 -2.8567377012223005e-03</internalNodes>
          <leafValues>
            3.5461768507957458e-01 -7.3632228374481201e-01</leafValues></_>
        <_>
          <internalNodes>
            0 -1 7 -1.0683545842766762e-03</internalNodes>
          <leafValues>
            3.3765393495559692e-01 -8.4394454956054688e-01</leafValues></_></weakClassifiers></_>
    <!-- stage 10 -->
    <_>
      <maxWeakCount>4</maxWeakCount>
      <stageThreshold>-1.2822331190109253e+00</stageThreshold>
      <weakClassifiers>
        <_>
          <internalNodes>
            0 -1 42 -2.1736200898885727e-02</internalNodes>
          <leafValues>
            8.1818181276321411e-01 -8.5117965936660767e-01</leafValues></_>
        <_>
          <internalNodes>
            0 -1 19 -8.3213520701974630e-04</internalNodes>
          <leafValues>
            -8.0730223655700684e-01 2.1197959780693054e-01</leafValues></_>
        <_>
          <internalNodes>
            0 -1 15 4.6728663146495819e-03</internalNodes>
          <leafValues>
            -9.4231981039047241e-01 2.3407971858978271e-01</leafValues></_>
        <_>
          <internalNodes>
            0 -1 36 -3.6830094177275896e-03</internalNodes>
          <leafValues>
            2.9928675293922424e-01 -8.4981667995452881e-01</leafValues></_></weakClassifiers></_>
    <!-- stage 11 -->
    <_>
      <maxWeakCount>2</maxWeakCount>
      <stageThreshold>-8.0041593313217163e-01</stageThreshold>
      <weakClassifiers>
        <_>
          <internalNodes>
            0 -1 34 3.4252025187015533e-02</internalNodes>
          <leafValues>
            -8.5740399360656738e-01 6.0000002384185791e-01</leafValues></_>
        <_>
          <internalNodes>
            0 -1 18 -5.5815428495407104e-03</internalNodes>
          <leafValues>
            -9.9181747436523438e-01 5.6988116353750229e-02</leafValues></_></weakClassifiers></_>
    <!-- stage 12 -->
    <_>
      <maxWeakCount>3</maxWeakCount>
      <stageThreshold>-1.2387995719909668e+00</stageThreshold>
      <weakClassifiers>
        <_>
          <internalNodes>
            0 -1 35 -1.7067899927496910e-02</internalNodes>
          <leafValues>
            7.6470589637756348e-01 -8.6788988113403320e-01</leafValues></_>
        <_>
          <internalNodes>
            0 -1 2 -4.9157971516251564e-03</internalNodes>
          <leafValues>
            5.9102690219879150e-01 -7.0221853256225586e-01</leafValues></_>
        <_>
          <internalNodes>
            0 -1 32 5.6487019173800945e-04</internalNodes>
          <leafValues>
            3.3130887150764465e-01 -9.5190900564193726e-01</leafValues></_></weakClassifiers></_>
    <!-- stage 13 -->
    <_>
      <maxWeakCount>4</maxWeakCount>
      <stageThreshold>-1.0160485506057739e+00</stageThreshold>
      <weakClassifiers>
        <_>
          <internalNodes>
            0 -1 26 4.0865493938326836e-03</internalNodes>
          <leafValues>
            -8.8910132646560669e-01 1.2820513546466827e-01</leafValues></_>
        <_>
          <internalNodes>
            0 -1 31 -3.0960356816649437e-03</internalNodes>
          <leafValues>
            6.4095687866210938e-01 -6.5162813663482666e-01</leafValues></_>
        <_>
          <internalNodes>
            0 -1 8 1.9256137311458588e-03</internalNodes>
          <leafValues>
            2.6946824789047241e-01 -1.</leafValues></_>
        <_>
          <internalNodes>
            0 -1 9 -3.4784143790602684e-03</internalNodes>
          <leafValues>
            -9.8777741193771362e-01 2.5521266460418701e-01</leafValues></_></weakClassifiers></_>
    <!-- stage 14 -->
    <_>
      <maxWeakCount>3</maxWeakCount>
      <stageThreshold>-1.2582088708877563e+00</stageThreshold>
      <weakClassifiers>
        <_>
          <internalNodes>
            0 -1 24 4.2011374607682228e-03</internalNodes>
          <leafValues>
            -8.6156648397445679e-01 1.</leafValues></_>
        <_>
          <internalNodes>
            0 -1 11 -8.8613760453881696e-06</internalNodes>
          <leafValues>
            -7.7320569753646851e-01 3.6482372879981995e-01</leafValues></_>
        <_>
          <internalNodes>
            0 -1 39 7.8729807864874601e-04</internalNodes>
          <leafValues>
            -7.2556060552597046e-01 3.7656328082084656e-01</leafValues></_></weakClassifiers></_></stages>
  <features>
    <_>
      <rects>
        <_>
          0 8 14 21 -1.</_>
        <_>
          7 8 7 21 2.</_></rects>
      <tilted>0</tilted></_>
    <_>
      <rects>
        <_>
          1 3 22 35 -1.</_>
        <_>
          12 3 11 35 2.</_></rects>
      <tilted>0</tilted></_>
    <_>
      <rects>
        <_>
          3 15 45 1 -1.</_>
        <_>
          18 15 15 1 3.</_></rects>
      <tilted>0</tilted></_>
    <_>
      <rects>
        <_>
          17 7 42 15 -1.</_>
        <_>
          31 7 14 15 3.</_></rects>
      <tilted>0</tilted></_>
    <_>
      <rects>
        <_>
          20 19 20 20 -1.</_>
        <_>
          20 24 20 10 2.</_></rects>
      <tilted>0</tilted></_>
    <_>
      <rects>
        <_>
          21 18 24 9 -1.</_>
        <_>
          29 18 8 9 3.</_></rects>
      <tilted>0</tilted></_>
    <_>
      <rects>
        <_>
          23 1 12 6 -1.</_>
        <_>
          26 4 6 6 2.</_></rects>
      <tilted>1</tilted></_>
    <_>
      <rects>
        <_>
          23 14 6 14 -1.</_>
        <_>
          25 14 2 14 3.</_></rects>
      <tilted>0</tilted></_>
    <_>
      <rects>
        <_>
          31 9 11 12 -1.</_>
        <_>
          31 9 11 6 2.</_></rects>
      <tilted>1</tilted></_>
    <_>
      <rects>
        <_>
          32 11 9 6 -1.</_>
        <_>
          35 14 3 6 3.</_></rects>
      <tilted>1</tilted></_>
    <_>
      <rects>
        <_>
          32 22 16 6 -1.</_>
        <_>
          40 22 8 6 2.</_></rects>
      <tilted>0</tilted></_>
    <_>
      <rects>
        <_>
          33 14 6 9 -1.</_>
        <_>
          36 14 3 9 2.</_></rects>
      <tilted>0</tilted></_>
    <_>
      <rects>
        <_>
          33 14 11 9 -1.</_>
        <_>
          30 17 11 3 3.</_></rects>
      <tilted>1</tilted></_>
    <_>
      <rects>
        <_>
          35 16 2 9 -1.</_>
        <_>
          35 19 2 3 3.</_></rects>
      <tilted>0</tilted></_>
    <_>
      <rects>
        <_>
          35 19 4 3 -1.</_>
        <_>
          37 19 2 3 2.</_></rects>
      <tilted>0</tilted></_>
    <_>
      <rects>
        <_>
          36 10 16 20 -1.</_>
        <_>
          36 20 16 10 2.</_></rects>
      <tilted>0</tilted></_>
    <_>
      <rects>
        <_>
          36 14 5 3 -1.</_>
        <_>
          36 15 5 1 3.</_></rects>
      <tilted>0</tilted></_>
    <_>
      <rects>
        <_>
          36 23 8 16 -1.</_>
        <_>
          36 27 8 8 2.</_></rects>
      <tilted>0</tilted></_>
    <_>
      <rects>
        <_>
          37 4 18 7 -1.</_>
        <_>
          37 4 9 7 2.</_></rects>
      <tilted>1</tilted></_>
    <_>
      <rects>
        <_>
          37 11 9 6 -1.</_>
        <_>
          35 13 9 2 3.</_></rects>
      <tilted>1</tilted></_>
    <_>
      <rects>
        <_>
          37 17 27 11 -1.</_>
        <_>
          46 17 9 11 3.</_></rects>
      <tilted>0</tilted></_>
    <_>
      <rects>
        <_>
          38 15 4 4 -1.</_>
        <_>
          39 16 2 4 2.</_></rects>
      <tilted>1</tilted></_>
    <_>
      <rects>
        <_>
          38 16 6 3 -1.</_>
        <_>
          38 16 3 3 2.</_></rects>
      <tilted>1</tilted></_>
    <_>
      <rects>
        <_>
          39 12 5 8 -1.</_>
        <_>
          39 14 5 4 2.</_></rects>
      <tilted>0</tilted></_>
    <_>
      <rects>
        <_>
          39 14 6 4 -1.</_>
        <_>
          41 14 2 4 3.</_></rects>
      <tilted>0</tilted></_>
    <_>
      <rects>
        <_>
          40 1 26 11 -1.</_>
        <_>
          40 1 13 11 2.</_></rects>
      <tilted>1</tilted></_>
    <_>
      <rects>
        <_>
          40 13 3 6 -1.</_>
        <_>
          41 15 1 2 9.</_></rects>
      <tilted>0</tilted></_>
    <_>
      <rects>
        <_>
          40 16 3 4 -1.</_>
        <_>
          41 17 1 4 3.</_></rects>
      <tilted>1</tilted></_>
    <_>
      <rects>
        <_>
          40 17 8 2 -1.</_>
        <_>
          42 17 4 2 2.</_></rects>
      <tilted>0</tilted></_>
    <_>
      <rects>
        <_>
          40 20 2 3 -1.</_>
        <_>
          40 21 2 1 3.</_></rects>
      <tilted>0</tilted></_>
    <_>
      <rects>
        <_>
          41 17 2 4 -1.</_>
        <_>
          40 18 2 2 2.</_></rects>
      <tilted>1</tilted></_>
    <_>
      <rects>
        <_>
          41 32 4 6 -1.</_>
        <_>
          41 35 4 3 2.</_></rects>
      <tilted>0</tilted></_>
    <_>
      <rects>
        <_>
          42 6 12 8 -1.</_>
        <_>
          42 6 6 8 2.</_></rects>
      <tilted>1</tilted></_>
    <_>
      <rects>
        <_>
          44 14 6 2 -1.</_>
        <_>
          44 14 3 1 2.</_>
        <_>
          47 15 3 1 2.</_></rects>
      <tilted>0</tilted></_>
    <_>
      <rects>
        <_>
          47 0 21 12 -1.</_>
        <_>
          47 4 21 4 3.</_></rects>
      <tilted>0</tilted></_>
    <_>
      <rects>
        <_>
          47 18 16 5 -1.</_>
        <_>
          55 18 8 5 2.</_></rects>
      <tilted>0</tilted></_>
    <_>
      <rects>
        <_>
          49 7 16 15 -1.</_>
        <_>
          53 7 8 15 2.</_></rects>
      <tilted>0</tilted></_>
    <_>
      <rects>
        <_>
          49 9 3 8 -1.</_>
        <_>
          50 10 1 8 3.</_></rects>
      <tilted>1</tilted></_>
    <_>
      <rects>
        <_>
          50 2 8 16 -1.</_>
        <_>
          50 2 4 8 2.</_>
        <_>
          54 10 4 8 2.</_></rects>
      <tilted>0</tilted></_>
    <_>
      <rects>
        <_>
          58 4 12 1 -1.</_>
        <_>
          58 4 6 1 2.</_></rects>
      <tilted>1</tilted></_>
    <_>
      <rects>
        <_>
          58 12 8 18 -1.</_>
        <_>
          62 12 4 18 2.</_></rects>
      <tilted>0</tilted></_>
    <_>
      <rects>
        <_>
          60 6 3 6 -1.</_>
        <_>
          60 6 3 3 2.</_></rects>
      <tilted>1</tilted></_>
    <_>
      <rects>
        <_>
          70 2 9 11 -1.</_>
        <_>
          73 2 3 11 3.</_></rects>
      <tilted>0</tilted></_></features></cascade>
</opencv_storage>
