<?xml version="1.0"?>
<opencv_storage>
<cascade>
  <stageType>BOOST</stageType>
  <featureType>HAAR</featureType>
  <height>32</height>
  <width>32</width>
  <stageParams>
    <boostType>GAB</boostType>
    <minHitRate>9.9500000476837158e-01</minHitRate>
    <maxFalseAlarm>5.0000000000000000e-01</maxFalseAlarm>
    <weightTrimRate>9.4999999999999996e-01</weightTrimRate>
    <maxDepth>1</maxDepth>
    <maxWeakCount>100</maxWeakCount></stageParams>
  <featureParams>
    <maxCatCount>0</maxCatCount>
    <featSize>1</featSize>
    <mode>BASIC</mode></featureParams>
  <stageNum>12</stageNum>
  <stages>
    <!-- stage 0 -->
    <_>
      <maxWeakCount>3</maxWeakCount>
      <stageThreshold>-1.7432377338409424e+00</stageThreshold>
      <weakClassifiers>
        <_>
          <internalNodes>
            0 -1 36 -1.6557022929191589e-02</internalNodes>
          <leafValues>
            -8.9279115200042725e-01 -1.0144927352666855e-01</leafValues></_>
        <_>
          <internalNodes>
            0 -1 49 -6.3708396628499031e-03</internalNodes>
          <leafValues>
            -9.6448326110839844e-01 -2.9545105993747711e-02</leafValues></_>
        <_>
          <internalNodes>
            0 -1 40 -2.9487311840057373e-03</internalNodes>
          <leafValues>
            -8.2090151309967041e-01 1.3010025024414063e-01</leafValues></_></weakClassifiers></_>
    <!-- stage 1 -->
    <_>
      <maxWeakCount>5</maxWeakCount>
      <stageThreshold>-1.4960609674453735e+00</stageThreshold>
      <weakClassifiers>
        <_>
          <internalNodes>
            0 -1 18 1.3685774803161621e-01</internalNodes>
          <leafValues>
            -8.4511786699295044e-01 7.5000000000000000e-01</leafValues></_>
        <_>
          <internalNodes>
            0 -1 31 -1.3872635364532471e-01</internalNodes>
          <leafValues>
            7.5274097919464111e-01 -5.1885879039764404e-01</leafValues></_>
        <_>
          <internalNodes>
            0 -1 0 -8.7704114615917206e-02</internalNodes>
          <leafValues>
            4.8238569498062134e-01 -5.2383071184158325e-01</leafValues></_>
        <_>
          <internalNodes>
            0 -1 7 1.9834359409287572e-04</internalNodes>
          <leafValues>
            2.5427657365798950e-01 -8.9329397678375244e-01</leafValues></_>
        <_>
          <internalNodes>
            0 -1 24 1.7334488802589476e-05</internalNodes>
          <leafValues>
            2.7882400155067444e-01 -6.9747924804687500e-01</leafValues></_></weakClassifiers></_>
    <!-- stage 2 -->
    <_>
      <maxWeakCount>5</maxWeakCount>
      <stageThreshold>-1.4184312820434570e+00</stageThreshold>
      <weakClassifiers>
        <_>
          <internalNodes>
            0 -1 54 3.1421300023794174e-02</internalNodes>
          <leafValues>
            -8.3557045459747314e-01 5.7142859697341919e-01</leafValues></_>
        <_>
          <internalNodes>
            0 -1 28 -2.6162657886743546e-02</internalNodes>
          <leafValues>
            3.2036957144737244e-01 -6.0084444284439087e-01</leafValues></_>
        <_>
          <internalNodes>
            0 -1 8 5.6982284149853513e-05</internalNodes>
          <leafValues>
            2.0722307264804840e-01 -8.9814740419387817e-01</leafValues></_>
        <_>
          <internalNodes>
            0 -1 47 5.6649855105206370e-04</internalNodes>
          <leafValues>
            -6.5300536155700684e-01 2.4150720238685608e-01</leafValues></_>
        <_>
          <internalNodes>
            0 -1 23 5.2020885050296783e-02</internalNodes>
          <leafValues>
            -2.4659019708633423e-01 7.9647457599639893e-01</leafValues></_></weakClassifiers></_>
    <!-- stage 3 -->
    <_>
      <maxWeakCount>5</maxWeakCount>
      <stageThreshold>-1.2565873861312866e+00</stageThreshold>
      <weakClassifiers>
        <_>
          <internalNodes>
            0 -1 42 -3.8630589842796326e-02</internalNodes>
          <leafValues>
            7.7777779102325439e-01 -8.2695508003234863e-01</leafValues></_>
        <_>
          <internalNodes>
            0 -1 27 2.8493581339716911e-02</internalNodes>
          <leafValues>
            -4.8233249783515930e-01 5.6166571378707886e-01</leafValues></_>
        <_>
          <internalNodes>
            0 -1 17 1.6952980076894164e-03</internalNodes>
          <leafValues>
            2.2894267737865448e-01 -7.0054244995117188e-01</leafValues></_>
        <_>
          <internalNodes>
            0 -1 50 3.0879996484145522e-04</internalNodes>
          <leafValues>
            2.0964263379573822e-01 -7.2466820478439331e-01</leafValues></_>
        <_>
          <internalNodes>
            0 -1 37 4.3462747707962990e-03</internalNodes>
          <leafValues>
            -3.1865662336349487e-01 5.4842567443847656e-01</leafValues></_></weakClassifiers></_>
    <!-- stage 4 -->
    <_>
      <maxWeakCount>6</maxWeakCount>
      <stageThreshold>-1.4645713567733765e+00</stageThreshold>
      <weakClassifiers>
        <_>
          <internalNodes>
            0 -1 5 1.6945883631706238e-01</internalNodes>
          <leafValues>
            -8.2724255323410034e-01 1.</leafValues></_>
        <_>
          <internalNodes>
            0 -1 51 2.2078746929764748e-02</internalNodes>
          <leafValues>
            -5.4408711194992065e-01 3.9842674136161804e-01</leafValues></_>
        <_>
          <internalNodes>
            0 -1 53 9.7277283202856779e-05</internalNodes>
          <leafValues>
            2.3285564780235291e-01 -6.5430223941802979e-01</leafValues></_>
        <_>
          <internalNodes>
            0 -1 44 -6.4214377198368311e-04</internalNodes>
          <leafValues>
            -7.2225666046142578e-01 2.4224318563938141e-01</leafValues></_>
        <_>
          <internalNodes>
            0 -1 60 -5.7080201804637909e-04</internalNodes>
          <leafValues>
            -9.2921173572540283e-01 1.4639778435230255e-01</leafValues></_>
        <_>
          <internalNodes>
            0 -1 15 4.0747079765424132e-05</internalNodes>
          <leafValues>
            2.4976155161857605e-01 -5.8120816946029663e-01</leafValues></_></weakClassifiers></_>
    <!-- stage 5 -->
    <_>
      <maxWeakCount>6</maxWeakCount>
      <stageThreshold>-1.4097965955734253e+00</stageThreshold>
      <weakClassifiers>
        <_>
          <internalNodes>
            0 -1 22 4.9234271049499512e-02</internalNodes>
          <leafValues>
            -8.2421225309371948e-01 1.</leafValues></_>
        <_>
          <internalNodes>
            0 -1 4 -2.1846370771527290e-02</internalNodes>
          <leafValues>
            1.5461355447769165e-01 -5.8133661746978760e-01</leafValues></_>
        <_>
          <internalNodes>
            0 -1 61 -3.7312540371203795e-05</internalNodes>
          <leafValues>
            -7.8457701206207275e-01 2.0267863571643829e-01</leafValues></_>
        <_>
          <internalNodes>
            0 -1 1 2.4883827427402139e-04</internalNodes>
          <leafValues>
            2.3901420831680298e-01 -5.9039211273193359e-01</leafValues></_>
        <_>
          <internalNodes>
            0 -1 59 5.5712705943733454e-05</internalNodes>
          <leafValues>
            2.5805744528770447e-01 -6.5219485759735107e-01</leafValues></_>
        <_>
          <internalNodes>
            0 -1 30 -4.5574875548481941e-03</internalNodes>
          <leafValues>
            2.9971042275428772e-01 -4.9262475967407227e-01</leafValues></_></weakClassifiers></_>
    <!-- stage 6 -->
    <_>
      <maxWeakCount>6</maxWeakCount>
      <stageThreshold>-1.3093746900558472e+00</stageThreshold>
      <weakClassifiers>
        <_>
          <internalNodes>
            0 -1 33 -1.6058674454689026e-01</internalNodes>
          <leafValues>
            1. -8.2421225309371948e-01</leafValues></_>
        <_>
          <internalNodes>
            0 -1 11 -8.7584806606173515e-03</internalNodes>
          <leafValues>
            4.1486909985542297e-01 -4.9434131383895874e-01</leafValues></_>
        <_>
          <internalNodes>
            0 -1 3 -7.2723923949524760e-06</internalNodes>
          <leafValues>
            -5.3708064556121826e-01 2.9250490665435791e-01</leafValues></_>
        <_>
          <internalNodes>
            0 -1 56 7.9127157732727937e-06</internalNodes>
          <leafValues>
            2.4945329129695892e-01 -5.9385472536087036e-01</leafValues></_>
        <_>
          <internalNodes>
            0 -1 62 1.2283437536098063e-04</internalNodes>
          <leafValues>
            2.0737072825431824e-01 -8.8327997922897339e-01</leafValues></_>
        <_>
          <internalNodes>
            0 -1 29 -1.9398255972191691e-04</internalNodes>
          <leafValues>
            3.5050061345100403e-01 -4.9728420376777649e-01</leafValues></_></weakClassifiers></_>
    <!-- stage 7 -->
    <_>
      <maxWeakCount>4</maxWeakCount>
      <stageThreshold>-1.2436445951461792e+00</stageThreshold>
      <weakClassifiers>
        <_>
          <internalNodes>
            0 -1 21 -1.7620405554771423e-01</internalNodes>
          <leafValues>
            -1.0000000149011612e-01 -8.5263156890869141e-01</leafValues></_>
        <_>
          <internalNodes>
            0 -1 25 1.1196643114089966e-01</internalNodes>
          <leafValues>
            -4.7791993618011475e-01 5.7911854982376099e-01</leafValues></_>
        <_>
          <internalNodes>
            0 -1 13 -3.3936392515897751e-02</internalNodes>
          <leafValues>
            3.7947997450828552e-01 -3.9628076553344727e-01</leafValues></_>
        <_>
          <internalNodes>
            0 -1 14 7.8640535473823547e-02</internalNodes>
          <leafValues>
            -2.6944392919540405e-01 7.0782822370529175e-01</leafValues></_></weakClassifiers></_>
    <!-- stage 8 -->
    <_>
      <maxWeakCount>6</maxWeakCount>
      <stageThreshold>-1.3779436349868774e+00</stageThreshold>
      <weakClassifiers>
        <_>
          <internalNodes>
            0 -1 39 3.8222178816795349e-02</internalNodes>
          <leafValues>
            -8.2119202613830566e-01 1.</leafValues></_>
        <_>
          <internalNodes>
            0 -1 57 -8.4708144640899263e-06</internalNodes>
          <leafValues>
            -7.5046885013580322e-01 -4.4798061251640320e-02</leafValues></_>
        <_>
          <internalNodes>
            0 -1 6 1.1070966138504446e-04</internalNodes>
          <leafValues>
            1.6700354218482971e-01 -7.8934717178344727e-01</leafValues></_>
        <_>
          <internalNodes>
            0 -1 46 -2.0010329899378121e-04</internalNodes>
          <leafValues>
            -6.8684089183807373e-01 2.5469639897346497e-01</leafValues></_>
        <_>
          <internalNodes>
            0 -1 55 -5.2513992413878441e-03</internalNodes>
          <leafValues>
            -4.9717709422111511e-01 2.4331226944923401e-01</leafValues></_>
        <_>
          <internalNodes>
            0 -1 35 7.4078710749745369e-03</internalNodes>
          <leafValues>
            -2.2061505913734436e-01 6.3495004177093506e-01</leafValues></_></weakClassifiers></_>
    <!-- stage 9 -->
    <_>
      <maxWeakCount>7</maxWeakCount>
      <stageThreshold>-1.3638992309570313e+00</stageThreshold>
      <weakClassifiers>
        <_>
          <internalNodes>
            0 -1 10 -9.4798497855663300e-02</internalNodes>
          <leafValues>
            2.3809523880481720e-01 -8.4040749073028564e-01</leafValues></_>
        <_>
          <internalNodes>
            0 -1 20 1.3696107268333435e-01</internalNodes>
          <leafValues>
            -4.8177736997604370e-01 4.2317652702331543e-01</leafValues></_>
        <_>
          <internalNodes>
            0 -1 26 2.0801284335902892e-05</internalNodes>
          <leafValues>
            2.2501048445701599e-01 -5.7205253839492798e-01</leafValues></_>
        <_>
          <internalNodes>
            0 -1 45 -6.7851387939299457e-06</internalNodes>
          <leafValues>
            -5.4687792062759399e-01 2.7602121233940125e-01</leafValues></_>
        <_>
          <internalNodes>
            0 -1 52 -1.0962518863379955e-03</internalNodes>
          <leafValues>
            -8.2491040229797363e-01 2.0128278434276581e-01</leafValues></_>
        <_>
          <internalNodes>
            0 -1 32 5.1355152390897274e-03</internalNodes>
          <leafValues>
            -2.4612054228782654e-01 7.6370126008987427e-01</leafValues></_>
        <_>
          <internalNodes>
            0 -1 16 7.1132840275822673e-06</internalNodes>
          <leafValues>
            3.2526078820228577e-01 -4.9790826439857483e-01</leafValues></_></weakClassifiers></_>
    <!-- stage 10 -->
    <_>
      <maxWeakCount>5</maxWeakCount>
      <stageThreshold>-1.2465434074401855e+00</stageThreshold>
      <weakClassifiers>
        <_>
          <internalNodes>
            0 -1 12 1.2469028681516647e-01</internalNodes>
          <leafValues>
            -8.1818181276321411e-01 1.</leafValues></_>
        <_>
          <internalNodes>
            0 -1 58 1.6149002476595342e-04</internalNodes>
          <leafValues>
            -1.2441359460353851e-01 -8.6143237352371216e-01</leafValues></_>
        <_>
          <internalNodes>
            0 -1 38 6.3873740145936608e-05</internalNodes>
          <leafValues>
            1.9492229819297791e-01 -5.7026064395904541e-01</leafValues></_>
        <_>
          <internalNodes>
            0 -1 41 -1.7142798751592636e-03</internalNodes>
          <leafValues>
            -6.3409036397933960e-01 2.3726302385330200e-01</leafValues></_>
        <_>
          <internalNodes>
            0 -1 9 3.3115886617451906e-04</internalNodes>
          <leafValues>
            1.6677367687225342e-01 -7.3613333702087402e-01</leafValues></_></weakClassifiers></_>
    <!-- stage 11 -->
    <_>
      <maxWeakCount>5</maxWeakCount>
      <stageThreshold>-1.3159248828887939e+00</stageThreshold>
      <weakClassifiers>
        <_>
          <internalNodes>
            0 -1 19 8.0377630889415741e-02</internalNodes>
          <leafValues>
            -8.2392024993896484e-01 7.5000000000000000e-01</leafValues></_>
        <_>
          <internalNodes>
            0 -1 34 -1.2001778231933713e-03</internalNodes>
          <leafValues>
            8.1322386860847473e-02 -5.6648224592208862e-01</leafValues></_>
        <_>
          <internalNodes>
            0 -1 43 4.3585145613178611e-04</internalNodes>
          <leafValues>
            -5.1633596420288086e-01 2.6998895406723022e-01</leafValues></_>
        <_>
          <internalNodes>
            0 -1 48 7.5348070822656155e-04</internalNodes>
          <leafValues>
            1.9885335862636566e-01 -6.4790630340576172e-01</leafValues></_>
        <_>
          <internalNodes>
            0 -1 2 -2.8915328439325094e-03</internalNodes>
          <leafValues>
            6.9060909748077393e-01 -1.9540962576866150e-01</leafValues></_></weakClassifiers></_></stages>
  <features>
    <_>
      <rects>
        <_>
          0 7 22 22 -1.</_>
        <_>
          11 7 11 22 2.</_></rects>
      <tilted>0</tilted></_>
    <_>
      <rects>
        <_>
          0 10 4 13 -1.</_>
        <_>
          2 10 2 13 2.</_></rects>
      <tilted>0</tilted></_>
    <_>
      <rects>
        <_>
          0 18 2 14 -1.</_>
        <_>
          1 18 1 14 2.</_></rects>
      <tilted>0</tilted></_>
    <_>
      <rects>
        <_>
          0 28 6 4 -1.</_>
        <_>
          0 30 6 2 2.</_></rects>
      <tilted>0</tilted></_>
    <_>
      <rects>
        <_>
          1 3 14 12 -1.</_>
        <_>
          1 3 7 6 2.</_>
        <_>
          8 9 7 6 2.</_></rects>
      <tilted>0</tilted></_>
    <_>
      <rects>
        <_>
          1 8 16 22 -1.</_>
        <_>
          1 8 8 11 2.</_>
        <_>
          9 19 8 11 2.</_></rects>
      <tilted>0</tilted></_>
    <_>
      <rects>
        <_>
          1 12 2 4 -1.</_>
        <_>
          1 12 1 2 2.</_>
        <_>
          2 14 1 2 2.</_></rects>
      <tilted>0</tilted></_>
    <_>
      <rects>
        <_>
          1 12 4 2 -1.</_>
        <_>
          1 12 2 1 2.</_>
        <_>
          3 13 2 1 2.</_></rects>
      <tilted>0</tilted></_>
    <_>
      <rects>
        <_>
          1 19 1 2 -1.</_>
        <_>
          1 20 1 1 2.</_></rects>
      <tilted>0</tilted></_>
    <_>
      <rects>
        <_>
          1 23 2 8 -1.</_>
        <_>
          1 23 1 4 2.</_>
        <_>
          2 27 1 4 2.</_></rects>
      <tilted>0</tilted></_>
    <_>
      <rects>
        <_>
          2 5 30 10 -1.</_>
        <_>
          2 5 15 5 2.</_>
        <_>
          17 10 15 5 2.</_></rects>
      <tilted>0</tilted></_>
    <_>
      <rects>
        <_>
          2 10 6 8 -1.</_>
        <_>
          2 10 3 4 2.</_>
        <_>
          5 14 3 4 2.</_></rects>
      <tilted>0</tilted></_>
    <_>
      <rects>
        <_>
          2 11 12 18 -1.</_>
        <_>
          2 11 6 9 2.</_>
        <_>
          8 20 6 9 2.</_></rects>
      <tilted>0</tilted></_>
    <_>
      <rects>
        <_>
          2 23 24 8 -1.</_>
        <_>
          14 23 12 8 2.</_></rects>
      <tilted>0</tilted></_>
    <_>
      <rects>
        <_>
          2 23 26 9 -1.</_>
        <_>
          15 23 13 9 2.</_></rects>
      <tilted>0</tilted></_>
    <_>
      <rects>
        <_>
          3 27 5 2 -1.</_>
        <_>
          3 28 5 1 2.</_></rects>
      <tilted>0</tilted></_>
    <_>
      <rects>
        <_>
          4 1 3 6 -1.</_>
        <_>
          4 4 3 3 2.</_></rects>
      <tilted>0</tilted></_>
    <_>
      <rects>
        <_>
          4 4 8 15 -1.</_>
        <_>
          8 4 4 15 2.</_></rects>
      <tilted>0</tilted></_>
    <_>
      <rects>
        <_>
          5 3 24 14 -1.</_>
        <_>
          5 3 12 7 2.</_>
        <_>
          17 10 12 7 2.</_></rects>
      <tilted>0</tilted></_>
    <_>
      <rects>
        <_>
          5 9 12 14 -1.</_>
        <_>
          5 9 6 7 2.</_>
        <_>
          11 16 6 7 2.</_></rects>
      <tilted>0</tilted></_>
    <_>
      <rects>
        <_>
          6 2 24 16 -1.</_>
        <_>
          6 2 12 8 2.</_>
        <_>
          18 10 12 8 2.</_></rects>
      <tilted>0</tilted></_>
    <_>
      <rects>
        <_>
          6 3 26 22 -1.</_>
        <_>
          6 3 13 11 2.</_>
        <_>
          19 14 13 11 2.</_></rects>
      <tilted>0</tilted></_>
    <_>
      <rects>
        <_>
          6 4 4 12 -1.</_>
        <_>
          6 10 4 6 2.</_></rects>
      <tilted>0</tilted></_>
    <_>
      <rects>
        <_>
          6 8 26 8 -1.</_>
        <_>
          6 8 13 4 2.</_>
        <_>
          19 12 13 4 2.</_></rects>
      <tilted>0</tilted></_>
    <_>
      <rects>
        <_>
          6 30 2 2 -1.</_>
        <_>
          6 30 1 1 2.</_>
        <_>
          7 31 1 1 2.</_></rects>
      <tilted>0</tilted></_>
    <_>
      <rects>
        <_>
          7 10 20 10 -1.</_>
        <_>
          17 10 10 10 2.</_></rects>
      <tilted>0</tilted></_>
    <_>
      <rects>
        <_>
          9 29 2 2 -1.</_>
        <_>
          9 30 2 1 2.</_></rects>
      <tilted>0</tilted></_>
    <_>
      <rects>
        <_>
          10 6 18 6 -1.</_>
        <_>
          10 6 9 3 2.</_>
        <_>
          19 9 9 3 2.</_></rects>
      <tilted>0</tilted></_>
    <_>
      <rects>
        <_>
          11 0 19 6 -1.</_>
        <_>
          11 3 19 3 2.</_></rects>
      <tilted>0</tilted></_>
    <_>
      <rects>
        <_>
          11 2 8 2 -1.</_>
        <_>
          11 2 4 1 2.</_>
        <_>
          15 3 4 1 2.</_></rects>
      <tilted>0</tilted></_>
    <_>
      <rects>
        <_>
          12 21 6 1 -1.</_>
        <_>
          14 21 2 1 2.</_></rects>
      <tilted>0</tilted></_>
    <_>
      <rects>
        <_>
          13 7 18 22 -1.</_>
        <_>
          13 7 9 11 2.</_>
        <_>
          22 18 9 11 2.</_></rects>
      <tilted>0</tilted></_>
    <_>
      <rects>
        <_>
          14 2 6 4 -1.</_>
        <_>
          14 4 6 2 2.</_></rects>
      <tilted>0</tilted></_>
    <_>
      <rects>
        <_>
          14 2 14 24 -1.</_>
        <_>
          14 2 7 12 2.</_>
        <_>
          21 14 7 12 2.</_></rects>
      <tilted>0</tilted></_>
    <_>
      <rects>
        <_>
          14 4 2 4 -1.</_>
        <_>
          14 6 2 2 2.</_></rects>
      <tilted>0</tilted></_>
    <_>
      <rects>
        <_>
          14 9 8 4 -1.</_>
        <_>
          14 11 8 2 2.</_></rects>
      <tilted>0</tilted></_>
    <_>
      <rects>
        <_>
          15 9 6 6 -1.</_>
        <_>
          15 11 6 2 2.</_></rects>
      <tilted>0</tilted></_>
    <_>
      <rects>
        <_>
          15 12 10 4 -1.</_>
        <_>
          15 12 5 2 2.</_>
        <_>
          20 14 5 2 2.</_></rects>
      <tilted>0</tilted></_>
    <_>
      <rects>
        <_>
          15 25 4 2 -1.</_>
        <_>
          15 25 2 1 2.</_>
        <_>
          17 26 2 1 2.</_></rects>
      <tilted>0</tilted></_>
    <_>
      <rects>
        <_>
          17 3 6 14 -1.</_>
        <_>
          17 3 3 7 2.</_>
        <_>
          20 10 3 7 2.</_></rects>
      <tilted>0</tilted></_>
    <_>
      <rects>
        <_>
          17 9 3 1 -1.</_>
        <_>
          18 9 1 1 2.</_></rects>
      <tilted>0</tilted></_>
    <_>
      <rects>
        <_>
          18 0 14 2 -1.</_>
        <_>
          25 0 7 2 2.</_></rects>
      <tilted>0</tilted></_>
    <_>
      <rects>
        <_>
          18 23 8 6 -1.</_>
        <_>
          22 23 4 6 2.</_></rects>
      <tilted>0</tilted></_>
    <_>
      <rects>
        <_>
          19 14 1 8 -1.</_>
        <_>
          19 18 1 4 2.</_></rects>
      <tilted>0</tilted></_>
    <_>
      <rects>
        <_>
          19 15 3 6 -1.</_>
        <_>
          19 18 3 3 2.</_></rects>
      <tilted>0</tilted></_>
    <_>
      <rects>
        <_>
          19 24 2 2 -1.</_>
        <_>
          19 24 1 1 2.</_>
        <_>
          20 25 1 1 2.</_></rects>
      <tilted>0</tilted></_>
    <_>
      <rects>
        <_>
          19 25 2 6 -1.</_>
        <_>
          19 25 1 3 2.</_>
        <_>
          20 28 1 3 2.</_></rects>
      <tilted>0</tilted></_>
    <_>
      <rects>
        <_>
          20 9 6 4 -1.</_>
        <_>
          23 9 3 4 2.</_></rects>
      <tilted>0</tilted></_>
    <_>
      <rects>
        <_>
          21 3 2 7 -1.</_>
        <_>
          22 3 1 7 2.</_></rects>
      <tilted>0</tilted></_>
    <_>
      <rects>
        <_>
          21 8 1 6 -1.</_>
        <_>
          21 10 1 2 2.</_></rects>
      <tilted>0</tilted></_>
    <_>
      <rects>
        <_>
          22 0 2 3 -1.</_>
        <_>
          23 0 1 3 2.</_></rects>
      <tilted>0</tilted></_>
    <_>
      <rects>
        <_>
          22 6 10 4 -1.</_>
        <_>
          27 6 5 4 2.</_></rects>
      <tilted>0</tilted></_>
    <_>
      <rects>
        <_>
          23 14 6 2 -1.</_>
        <_>
          23 15 6 1 2.</_></rects>
      <tilted>0</tilted></_>
    <_>
      <rects>
        <_>
          23 16 4 4 -1.</_>
        <_>
          23 18 4 2 2.</_></rects>
      <tilted>0</tilted></_>
    <_>
      <rects>
        <_>
          24 14 8 5 -1.</_>
        <_>
          28 14 4 5 2.</_></rects>
      <tilted>0</tilted></_>
    <_>
      <rects>
        <_>
          25 9 1 6 -1.</_>
        <_>
          25 11 1 2 2.</_></rects>
      <tilted>0</tilted></_>
    <_>
      <rects>
        <_>
          26 21 4 2 -1.</_>
        <_>
          26 21 2 1 2.</_>
        <_>
          28 22 2 1 2.</_></rects>
      <tilted>0</tilted></_>
    <_>
      <rects>
        <_>
          26 24 6 2 -1.</_>
        <_>
          29 24 3 2 2.</_></rects>
      <tilted>0</tilted></_>
    <_>
      <rects>
        <_>
          28 16 4 2 -1.</_>
        <_>
          28 17 4 1 2.</_></rects>
      <tilted>0</tilted></_>
    <_>
      <rects>
        <_>
          28 30 2 2 -1.</_>
        <_>
          28 30 1 1 2.</_>
        <_>
          29 31 1 1 2.</_></rects>
      <tilted>0</tilted></_>
    <_>
      <rects>
        <_>
          29 12 3 2 -1.</_>
        <_>
          29 13 3 1 2.</_></rects>
      <tilted>0</tilted></_>
    <_>
      <rects>
        <_>
          30 3 2 1 -1.</_>
        <_>
          31 3 1 1 2.</_></rects>
      <tilted>0</tilted></_>
    <_>
      <rects>
        <_>
          31 2 1 2 -1.</_>
        <_>
          31 3 1 1 2.</_></rects>
      <tilted>0</tilted></_></features></cascade>
</opencv_storage>
