<?xml version="1.0"?>
<opencv_storage>
<cascade>
  <stageType>BOOST</stageType>
  <featureType>HAAR</featureType>
  <height>22</height>
  <width>22</width>
  <stageParams>
    <boostType>GAB</boostType>
    <minHitRate>9.9500000476837158e-01</minHitRate>
    <maxFalseAlarm>5.0000000000000000e-01</maxFalseAlarm>
    <weightTrimRate>9.4999999999999996e-01</weightTrimRate>
    <maxDepth>1</maxDepth>
    <maxWeakCount>100</maxWeakCount></stageParams>
  <featureParams>
    <maxCatCount>0</maxCatCount>
    <featSize>1</featSize>
    <mode>BASIC</mode></featureParams>
  <stageNum>14</stageNum>
  <stages>
    <!-- stage 0 -->
    <_>
      <maxWeakCount>3</maxWeakCount>
      <stageThreshold>-1.4486223459243774e+00</stageThreshold>
      <weakClassifiers>
        <_>
          <internalNodes>
            0 -1 60 -3.1238043680787086e-02</internalNodes>
          <leafValues>
            -9.4726169109344482e-01 -1.9658119976520538e-01</leafValues></_>
        <_>
          <internalNodes>
            0 -1 43 -6.8443387746810913e-02</internalNodes>
          <leafValues>
            -9.0020614862442017e-01 5.5544886738061905e-02</leafValues></_>
        <_>
          <internalNodes>
            0 -1 64 3.2899752259254456e-02</internalNodes>
          <leafValues>
            -5.5690562725067139e-01 5.5658286809921265e-01</leafValues></_></weakClassifiers></_>
    <!-- stage 1 -->
    <_>
      <maxWeakCount>5</maxWeakCount>
      <stageThreshold>-1.2058473825454712e+00</stageThreshold>
      <weakClassifiers>
        <_>
          <internalNodes>
            0 -1 30 8.3245456218719482e-02</internalNodes>
          <leafValues>
            -8.5034012794494629e-01 4.5454546809196472e-01</leafValues></_>
        <_>
          <internalNodes>
            0 -1 57 -4.6416800469160080e-02</internalNodes>
          <leafValues>
            2.0650766789913177e-01 -6.4260762929916382e-01</leafValues></_>
        <_>
          <internalNodes>
            0 -1 46 2.7439527912065387e-04</internalNodes>
          <leafValues>
            1.9553858041763306e-01 -7.5700259208679199e-01</leafValues></_>
        <_>
          <internalNodes>
            0 -1 3 -2.2408477962017059e-02</internalNodes>
          <leafValues>
            4.9261096119880676e-01 -3.7820816040039063e-01</leafValues></_>
        <_>
          <internalNodes>
            0 -1 42 -2.5552615523338318e-02</internalNodes>
          <leafValues>
            5.7319575548171997e-01 -2.9747396707534790e-01</leafValues></_></weakClassifiers></_>
    <!-- stage 2 -->
    <_>
      <maxWeakCount>4</maxWeakCount>
      <stageThreshold>-1.2858079671859741e+00</stageThreshold>
      <weakClassifiers>
        <_>
          <internalNodes>
            0 -1 53 -9.8862044513225555e-02</internalNodes>
          <leafValues>
            3.9130434393882751e-01 -8.5008519887924194e-01</leafValues></_>
        <_>
          <internalNodes>
            0 -1 10 3.4820877772290260e-05</internalNodes>
          <leafValues>
            -4.2125571519136429e-02 -7.8198236227035522e-01</leafValues></_>
        <_>
          <internalNodes>
            0 -1 63 5.3224819566821679e-05</internalNodes>
          <leafValues>
            2.2259174287319183e-01 -6.5691697597503662e-01</leafValues></_>
        <_>
          <internalNodes>
            0 -1 41 -1.9102681428194046e-02</internalNodes>
          <leafValues>
            2.7994018793106079e-01 -6.1618900299072266e-01</leafValues></_></weakClassifiers></_>
    <!-- stage 3 -->
    <_>
      <maxWeakCount>5</maxWeakCount>
      <stageThreshold>-1.7166426181793213e+00</stageThreshold>
      <weakClassifiers>
        <_>
          <internalNodes>
            0 -1 32 2.5620082020759583e-01</internalNodes>
          <leafValues>
            -8.4067797660827637e-01 3.0000001192092896e-01</leafValues></_>
        <_>
          <internalNodes>
            0 -1 0 -1.7450311779975891e-01</internalNodes>
          <leafValues>
            3.7740173935890198e-01 -5.2060258388519287e-01</leafValues></_>
        <_>
          <internalNodes>
            0 -1 2 8.5223675705492496e-04</internalNodes>
          <leafValues>
            2.0558659732341766e-01 -8.4611475467681885e-01</leafValues></_>
        <_>
          <internalNodes>
            0 -1 23 1.1356114409863949e-03</internalNodes>
          <leafValues>
            2.2504886984825134e-01 -5.9246414899826050e-01</leafValues></_>
        <_>
          <internalNodes>
            0 -1 78 4.1172030614688993e-04</internalNodes>
          <leafValues>
            1.8521253764629364e-01 -8.7898278236389160e-01</leafValues></_></weakClassifiers></_>
    <!-- stage 4 -->
    <_>
      <maxWeakCount>6</maxWeakCount>
      <stageThreshold>-1.4218930006027222e+00</stageThreshold>
      <weakClassifiers>
        <_>
          <internalNodes>
            0 -1 40 1.0218378901481628e-01</internalNodes>
          <leafValues>
            -8.4040749073028564e-01 2.3809523880481720e-01</leafValues></_>
        <_>
          <internalNodes>
            0 -1 15 -1.4180621504783630e-01</internalNodes>
          <leafValues>
            7.0837426185607910e-01 -4.4743776321411133e-01</leafValues></_>
        <_>
          <internalNodes>
            0 -1 69 -4.8728208639658988e-05</internalNodes>
          <leafValues>
            -6.1109042167663574e-01 2.2124540805816650e-01</leafValues></_>
        <_>
          <internalNodes>
            0 -1 27 -8.1623729784041643e-05</internalNodes>
          <leafValues>
            -6.7127704620361328e-01 2.2964942455291748e-01</leafValues></_>
        <_>
          <internalNodes>
            0 -1 75 -1.1164755560457706e-03</internalNodes>
          <leafValues>
            -9.6048235893249512e-01 1.5667755901813507e-01</leafValues></_>
        <_>
          <internalNodes>
            0 -1 79 6.8129401188343763e-04</internalNodes>
          <leafValues>
            1.5930634737014771e-01 -7.0454269647598267e-01</leafValues></_></weakClassifiers></_>
    <!-- stage 5 -->
    <_>
      <maxWeakCount>5</maxWeakCount>
      <stageThreshold>-1.2822142839431763e+00</stageThreshold>
      <weakClassifiers>
        <_>
          <internalNodes>
            0 -1 54 -1.2906184792518616e-01</internalNodes>
          <leafValues>
            -1.6666667163372040e-01 -8.5765123367309570e-01</leafValues></_>
        <_>
          <internalNodes>
            0 -1 16 -2.0915636792778969e-02</internalNodes>
          <leafValues>
            6.1316049098968506e-01 -4.6781945228576660e-01</leafValues></_>
        <_>
          <internalNodes>
            0 -1 73 -1.3491263380274177e-03</internalNodes>
          <leafValues>
            -8.4646213054656982e-01 1.2463445961475372e-01</leafValues></_>
        <_>
          <internalNodes>
            0 -1 59 -1.0584901319816709e-03</internalNodes>
          <leafValues>
            -9.6918219327926636e-01 9.7088932991027832e-02</leafValues></_>
        <_>
          <internalNodes>
            0 -1 47 -6.8398386240005493e-02</internalNodes>
          <leafValues>
            -8.6945158243179321e-01 1.4679898321628571e-01</leafValues></_></weakClassifiers></_>
    <!-- stage 6 -->
    <_>
      <maxWeakCount>6</maxWeakCount>
      <stageThreshold>-1.3725728988647461e+00</stageThreshold>
      <weakClassifiers>
        <_>
          <internalNodes>
            0 -1 18 3.5932961851358414e-02</internalNodes>
          <leafValues>
            -8.2421225309371948e-01 1.</leafValues></_>
        <_>
          <internalNodes>
            0 -1 7 8.9307111920788884e-05</internalNodes>
          <leafValues>
            -6.7845582962036133e-02 -7.4294489622116089e-01</leafValues></_>
        <_>
          <internalNodes>
            0 -1 11 -1.1889516608789563e-03</internalNodes>
          <leafValues>
            -1. 9.5963351428508759e-02</leafValues></_>
        <_>
          <internalNodes>
            0 -1 76 -7.2872019372880459e-03</internalNodes>
          <leafValues>
            1.7588670551776886e-01 -6.4585208892822266e-01</leafValues></_>
        <_>
          <internalNodes>
            0 -1 19 3.4882523119449615e-02</internalNodes>
          <leafValues>
            -1.8160735070705414e-01 8.4059250354766846e-01</leafValues></_>
        <_>
          <internalNodes>
            0 -1 14 -1.2731203809380531e-02</internalNodes>
          <leafValues>
            3.0981931090354919e-01 -5.7075774669647217e-01</leafValues></_></weakClassifiers></_>
    <!-- stage 7 -->
    <_>
      <maxWeakCount>7</maxWeakCount>
      <stageThreshold>-1.3260350227355957e+00</stageThreshold>
      <weakClassifiers>
        <_>
          <internalNodes>
            0 -1 37 -3.1902275979518890e-02</internalNodes>
          <leafValues>
            6.6666668653488159e-01 -8.3277589082717896e-01</leafValues></_>
        <_>
          <internalNodes>
            0 -1 62 -5.3972294554114342e-03</internalNodes>
          <leafValues>
            2.9108145833015442e-01 -5.1934885978698730e-01</leafValues></_>
        <_>
          <internalNodes>
            0 -1 58 1.7446078360080719e-02</internalNodes>
          <leafValues>
            -2.7064067125320435e-01 5.5285793542861938e-01</leafValues></_>
        <_>
          <internalNodes>
            0 -1 29 -4.3988908873870969e-04</internalNodes>
          <leafValues>
            3.2846584916114807e-01 -4.3319404125213623e-01</leafValues></_>
        <_>
          <internalNodes>
            0 -1 68 2.9472575988620520e-04</internalNodes>
          <leafValues>
            1.7739637196063995e-01 -7.4941307306289673e-01</leafValues></_>
        <_>
          <internalNodes>
            0 -1 8 1.7255806596949697e-05</internalNodes>
          <leafValues>
            2.8124731779098511e-01 -5.2690917253494263e-01</leafValues></_>
        <_>
          <internalNodes>
            0 -1 4 2.5139752775430679e-02</internalNodes>
          <leafValues>
            -3.2776290178298950e-01 4.3643030524253845e-01</leafValues></_></weakClassifiers></_>
    <!-- stage 8 -->
    <_>
      <maxWeakCount>7</maxWeakCount>
      <stageThreshold>-1.5753643512725830e+00</stageThreshold>
      <weakClassifiers>
        <_>
          <internalNodes>
            0 -1 67 1.0963926091790199e-02</internalNodes>
          <leafValues>
            -8.2637727260589600e-01 4.5454546809196472e-01</leafValues></_>
        <_>
          <internalNodes>
            0 -1 66 -1.4798522926867008e-02</internalNodes>
          <leafValues>
            1.1714434251189232e-02 -6.2816894054412842e-01</leafValues></_>
        <_>
          <internalNodes>
            0 -1 26 3.2940477132797241e-02</internalNodes>
          <leafValues>
            -2.7006223797798157e-01 5.2967673540115356e-01</leafValues></_>
        <_>
          <internalNodes>
            0 -1 17 1.1207310308236629e-04</internalNodes>
          <leafValues>
            2.3257595300674438e-01 -6.3901394605636597e-01</leafValues></_>
        <_>
          <internalNodes>
            0 -1 21 -5.6017655879259109e-03</internalNodes>
          <leafValues>
            1.8016844987869263e-01 -8.9930057525634766e-01</leafValues></_>
        <_>
          <internalNodes>
            0 -1 48 8.4273880347609520e-03</internalNodes>
          <leafValues>
            -2.5127506256103516e-01 6.0985255241394043e-01</leafValues></_>
        <_>
          <internalNodes>
            0 -1 12 1.4285225188359618e-04</internalNodes>
          <leafValues>
            2.1948133409023285e-01 -6.3657516241073608e-01</leafValues></_></weakClassifiers></_>
    <!-- stage 9 -->
    <_>
      <maxWeakCount>6</maxWeakCount>
      <stageThreshold>-1.3823642730712891e+00</stageThreshold>
      <weakClassifiers>
        <_>
          <internalNodes>
            0 -1 38 1.0252073407173157e-01</internalNodes>
          <leafValues>
            -8.2914572954177856e-01 3.8461539149284363e-01</leafValues></_>
        <_>
          <internalNodes>
            0 -1 77 6.4768688753247261e-04</internalNodes>
          <leafValues>
            -1.4737682044506073e-01 -8.2091474533081055e-01</leafValues></_>
        <_>
          <internalNodes>
            0 -1 1 -3.0079393181949854e-03</internalNodes>
          <leafValues>
            -8.8068556785583496e-01 6.8788774311542511e-02</leafValues></_>
        <_>
          <internalNodes>
            0 -1 5 -2.4345208657905459e-04</internalNodes>
          <leafValues>
            -4.9902099370956421e-01 1.9207435846328735e-01</leafValues></_>
        <_>
          <internalNodes>
            0 -1 52 -2.2943560034036636e-02</internalNodes>
          <leafValues>
            4.6110209822654724e-01 -2.8828325867652893e-01</leafValues></_>
        <_>
          <internalNodes>
            0 -1 56 -8.9929793030023575e-03</internalNodes>
          <leafValues>
            5.6808531284332275e-01 -1.7833256721496582e-01</leafValues></_></weakClassifiers></_>
    <!-- stage 10 -->
    <_>
      <maxWeakCount>7</maxWeakCount>
      <stageThreshold>-1.5564390420913696e+00</stageThreshold>
      <weakClassifiers>
        <_>
          <internalNodes>
            0 -1 9 9.6956253051757813e-02</internalNodes>
          <leafValues>
            -8.5330945253372192e-01 -2.5490197539329529e-01</leafValues></_>
        <_>
          <internalNodes>
            0 -1 70 3.7418745458126068e-02</internalNodes>
          <leafValues>
            -4.6355313062667847e-01 4.3954542279243469e-01</leafValues></_>
        <_>
          <internalNodes>
            0 -1 50 -3.2277774880640209e-04</internalNodes>
          <leafValues>
            2.8903433680534363e-01 -3.5411721467971802e-01</leafValues></_>
        <_>
          <internalNodes>
            0 -1 72 6.3863690011203289e-03</internalNodes>
          <leafValues>
            -1.8690662086009979e-01 6.3150137662887573e-01</leafValues></_>
        <_>
          <internalNodes>
            0 -1 65 3.9607225917279720e-03</internalNodes>
          <leafValues>
            -2.1853446960449219e-01 5.0072395801544189e-01</leafValues></_>
        <_>
          <internalNodes>
            0 -1 13 4.2058214545249939e-02</internalNodes>
          <leafValues>
            -2.0026251673698425e-01 6.4682370424270630e-01</leafValues></_>
        <_>
          <internalNodes>
            0 -1 22 -6.8782572634518147e-04</internalNodes>
          <leafValues>
            -5.2131462097167969e-01 2.2123986482620239e-01</leafValues></_></weakClassifiers></_>
    <!-- stage 11 -->
    <_>
      <maxWeakCount>7</maxWeakCount>
      <stageThreshold>-1.5986931324005127e+00</stageThreshold>
      <weakClassifiers>
        <_>
          <internalNodes>
            0 -1 31 3.0085545033216476e-02</internalNodes>
          <leafValues>
            -8.2362729310989380e-01 5.5555558204650879e-01</leafValues></_>
        <_>
          <internalNodes>
            0 -1 44 8.3080649375915527e-02</internalNodes>
          <leafValues>
            -4.9150520563125610e-01 2.2740529477596283e-01</leafValues></_>
        <_>
          <internalNodes>
            0 -1 34 1.2705273693427444e-03</internalNodes>
          <leafValues>
            1.5060980618000031e-01 -6.2500250339508057e-01</leafValues></_>
        <_>
          <internalNodes>
            0 -1 20 1.2548860162496567e-02</internalNodes>
          <leafValues>
            -2.2501401603221893e-01 4.7027266025543213e-01</leafValues></_>
        <_>
          <internalNodes>
            0 -1 71 4.0724847349338233e-04</internalNodes>
          <leafValues>
            1.4052423834800720e-01 -8.0145293474197388e-01</leafValues></_>
        <_>
          <internalNodes>
            0 -1 28 -1.5911191439954564e-05</internalNodes>
          <leafValues>
            -4.5489585399627686e-01 2.4952429533004761e-01</leafValues></_>
        <_>
          <internalNodes>
            0 -1 51 -2.8126032557338476e-03</internalNodes>
          <leafValues>
            -1. 1.0521519929170609e-01</leafValues></_></weakClassifiers></_>
    <!-- stage 12 -->
    <_>
      <maxWeakCount>7</maxWeakCount>
      <stageThreshold>-1.3571203947067261e+00</stageThreshold>
      <weakClassifiers>
        <_>
          <internalNodes>
            0 -1 55 -2.5034245103597641e-02</internalNodes>
          <leafValues>
            4.5454546809196472e-01 -8.2637727260589600e-01</leafValues></_>
        <_>
          <internalNodes>
            0 -1 36 6.1857365071773529e-02</internalNodes>
          <leafValues>
            -4.3907532095909119e-01 5.8739960193634033e-01</leafValues></_>
        <_>
          <internalNodes>
            0 -1 61 3.7353113293647766e-02</internalNodes>
          <leafValues>
            -2.2485750913619995e-01 5.1437300443649292e-01</leafValues></_>
        <_>
          <internalNodes>
            0 -1 6 -1.5202445210888982e-03</internalNodes>
          <leafValues>
            4.3730518221855164e-01 -2.6474294066429138e-01</leafValues></_>
        <_>
          <internalNodes>
            0 -1 49 3.7681134417653084e-03</internalNodes>
          <leafValues>
            -1.7542292177677155e-01 6.1642026901245117e-01</leafValues></_>
        <_>
          <internalNodes>
            0 -1 39 6.3441284000873566e-03</internalNodes>
          <leafValues>
            -1.8817874789237976e-01 5.9993225336074829e-01</leafValues></_>
        <_>
          <internalNodes>
            0 -1 74 2.9472805908881128e-04</internalNodes>
          <leafValues>
            1.7302560806274414e-01 -6.7974424362182617e-01</leafValues></_></weakClassifiers></_>
    <!-- stage 13 -->
    <_>
      <maxWeakCount>5</maxWeakCount>
      <stageThreshold>-1.2691652774810791e+00</stageThreshold>
      <weakClassifiers>
        <_>
          <internalNodes>
            0 -1 33 2.6324693113565445e-02</internalNodes>
          <leafValues>
            -8.2392024993896484e-01 7.5000000000000000e-01</leafValues></_>
        <_>
          <internalNodes>
            0 -1 45 -1.8518259748816490e-02</internalNodes>
          <leafValues>
            5.7916748523712158e-01 -4.2659983038902283e-01</leafValues></_>
        <_>
          <internalNodes>
            0 -1 35 1.1723169591277838e-03</internalNodes>
          <leafValues>
            1.8009492754936218e-01 -7.3815315961837769e-01</leafValues></_>
        <_>
          <internalNodes>
            0 -1 25 1.0903144720941782e-04</internalNodes>
          <leafValues>
            2.1282638609409332e-01 -4.8937207460403442e-01</leafValues></_>
        <_>
          <internalNodes>
            0 -1 24 5.7002203539013863e-03</internalNodes>
          <leafValues>
            -2.8014564514160156e-01 5.0668156147003174e-01</leafValues></_></weakClassifiers></_></stages>
  <features>
    <_>
      <rects>
        <_>
          0 0 20 16 -1.</_>
        <_>
          0 0 10 8 2.</_>
        <_>
          10 8 10 8 2.</_></rects>
      <tilted>0</tilted></_>
    <_>
      <rects>
        <_>
          0 1 1 4 -1.</_>
        <_>
          0 3 1 2 2.</_></rects>
      <tilted>0</tilted></_>
    <_>
      <rects>
        <_>
          0 2 4 2 -1.</_>
        <_>
          0 3 4 1 2.</_></rects>
      <tilted>0</tilted></_>
    <_>
      <rects>
        <_>
          0 2 10 8 -1.</_>
        <_>
          0 2 5 4 2.</_>
        <_>
          5 6 5 4 2.</_></rects>
      <tilted>0</tilted></_>
    <_>
      <rects>
        <_>
          0 4 6 18 -1.</_>
        <_>
          0 4 3 9 2.</_>
        <_>
          3 13 3 9 2.</_></rects>
      <tilted>0</tilted></_>
    <_>
      <rects>
        <_>
          0 7 1 4 -1.</_>
        <_>
          0 9 1 2 2.</_></rects>
      <tilted>0</tilted></_>
    <_>
      <rects>
        <_>
          0 13 2 6 -1.</_>
        <_>
          1 13 1 6 2.</_></rects>
      <tilted>0</tilted></_>
    <_>
      <rects>
        <_>
          0 13 4 2 -1.</_>
        <_>
          2 13 2 2 2.</_></rects>
      <tilted>0</tilted></_>
    <_>
      <rects>
        <_>
          0 16 6 2 -1.</_>
        <_>
          0 17 6 1 2.</_></rects>
      <tilted>0</tilted></_>
    <_>
      <rects>
        <_>
          0 16 18 5 -1.</_>
        <_>
          9 16 9 5 2.</_></rects>
      <tilted>0</tilted></_>
    <_>
      <rects>
        <_>
          0 19 2 2 -1.</_>
        <_>
          1 19 1 2 2.</_></rects>
      <tilted>0</tilted></_>
    <_>
      <rects>
        <_>
          0 19 2 2 -1.</_>
        <_>
          0 20 2 1 2.</_></rects>
      <tilted>0</tilted></_>
    <_>
      <rects>
        <_>
          1 0 1 4 -1.</_>
        <_>
          1 2 1 2 2.</_></rects>
      <tilted>0</tilted></_>
    <_>
      <rects>
        <_>
          1 2 16 8 -1.</_>
        <_>
          1 2 8 4 2.</_>
        <_>
          9 6 8 4 2.</_></rects>
      <tilted>0</tilted></_>
    <_>
      <rects>
        <_>
          1 3 10 12 -1.</_>
        <_>
          6 3 5 12 2.</_></rects>
      <tilted>0</tilted></_>
    <_>
      <rects>
        <_>
          1 3 20 8 -1.</_>
        <_>
          1 3 10 4 2.</_>
        <_>
          11 7 10 4 2.</_></rects>
      <tilted>0</tilted></_>
    <_>
      <rects>
        <_>
          1 10 4 4 -1.</_>
        <_>
          3 10 2 4 2.</_></rects>
      <tilted>0</tilted></_>
    <_>
      <rects>
        <_>
          1 12 2 2 -1.</_>
        <_>
          1 12 1 1 2.</_>
        <_>
          2 13 1 1 2.</_></rects>
      <tilted>0</tilted></_>
    <_>
      <rects>
        <_>
          1 19 16 1 -1.</_>
        <_>
          9 19 8 1 2.</_></rects>
      <tilted>0</tilted></_>
    <_>
      <rects>
        <_>
          2 0 18 4 -1.</_>
        <_>
          2 2 18 2 2.</_></rects>
      <tilted>0</tilted></_>
    <_>
      <rects>
        <_>
          2 16 8 6 -1.</_>
        <_>
          2 16 4 3 2.</_>
        <_>
          6 19 4 3 2.</_></rects>
      <tilted>0</tilted></_>
    <_>
      <rects>
        <_>
          2 17 6 1 -1.</_>
        <_>
          4 17 2 1 2.</_></rects>
      <tilted>0</tilted></_>
    <_>
      <rects>
        <_>
          3 0 6 1 -1.</_>
        <_>
          6 0 3 1 2.</_></rects>
      <tilted>0</tilted></_>
    <_>
      <rects>
        <_>
          3 2 6 9 -1.</_>
        <_>
          6 2 3 9 2.</_></rects>
      <tilted>0</tilted></_>
    <_>
      <rects>
        <_>
          3 4 1 10 -1.</_>
        <_>
          3 9 1 5 2.</_></rects>
      <tilted>0</tilted></_>
    <_>
      <rects>
        <_>
          3 8 2 2 -1.</_>
        <_>
          3 9 2 1 2.</_></rects>
      <tilted>0</tilted></_>
    <_>
      <rects>
        <_>
          3 8 12 6 -1.</_>
        <_>
          3 8 6 3 2.</_>
        <_>
          9 11 6 3 2.</_></rects>
      <tilted>0</tilted></_>
    <_>
      <rects>
        <_>
          3 12 2 2 -1.</_>
        <_>
          3 12 1 1 2.</_>
        <_>
          4 13 1 1 2.</_></rects>
      <tilted>0</tilted></_>
    <_>
      <rects>
        <_>
          3 20 1 2 -1.</_>
        <_>
          3 21 1 1 2.</_></rects>
      <tilted>0</tilted></_>
    <_>
      <rects>
        <_>
          4 3 8 2 -1.</_>
        <_>
          4 3 4 1 2.</_>
        <_>
          8 4 4 1 2.</_></rects>
      <tilted>0</tilted></_>
    <_>
      <rects>
        <_>
          4 4 18 6 -1.</_>
        <_>
          4 4 9 3 2.</_>
        <_>
          13 7 9 3 2.</_></rects>
      <tilted>0</tilted></_>
    <_>
      <rects>
        <_>
          4 5 4 4 -1.</_>
        <_>
          4 7 4 2 2.</_></rects>
      <tilted>0</tilted></_>
    <_>
      <rects>
        <_>
          4 7 14 15 -1.</_>
        <_>
          11 7 7 15 2.</_></rects>
      <tilted>0</tilted></_>
    <_>
      <rects>
        <_>
          4 10 12 1 -1.</_>
        <_>
          10 10 6 1 2.</_></rects>
      <tilted>0</tilted></_>
    <_>
      <rects>
        <_>
          5 0 4 1 -1.</_>
        <_>
          7 0 2 1 2.</_></rects>
      <tilted>0</tilted></_>
    <_>
      <rects>
        <_>
          5 3 2 7 -1.</_>
        <_>
          6 3 1 7 2.</_></rects>
      <tilted>0</tilted></_>
    <_>
      <rects>
        <_>
          5 14 8 6 -1.</_>
        <_>
          9 14 4 6 2.</_></rects>
      <tilted>0</tilted></_>
    <_>
      <rects>
        <_>
          6 0 11 2 -1.</_>
        <_>
          6 1 11 1 2.</_></rects>
      <tilted>0</tilted></_>
    <_>
      <rects>
        <_>
          6 13 8 8 -1.</_>
        <_>
          10 13 4 8 2.</_></rects>
      <tilted>0</tilted></_>
    <_>
      <rects>
        <_>
          7 1 7 2 -1.</_>
        <_>
          7 2 7 1 2.</_></rects>
      <tilted>0</tilted></_>
    <_>
      <rects>
        <_>
          7 2 14 8 -1.</_>
        <_>
          7 2 7 4 2.</_>
        <_>
          14 6 7 4 2.</_></rects>
      <tilted>0</tilted></_>
    <_>
      <rects>
        <_>
          7 15 6 2 -1.</_>
        <_>
          9 15 2 2 2.</_></rects>
      <tilted>0</tilted></_>
    <_>
      <rects>
        <_>
          8 1 4 19 -1.</_>
        <_>
          10 1 2 19 2.</_></rects>
      <tilted>0</tilted></_>
    <_>
      <rects>
        <_>
          8 1 9 3 -1.</_>
        <_>
          8 2 9 1 2.</_></rects>
      <tilted>0</tilted></_>
    <_>
      <rects>
        <_>
          8 2 14 10 -1.</_>
        <_>
          8 2 7 5 2.</_>
        <_>
          15 7 7 5 2.</_></rects>
      <tilted>0</tilted></_>
    <_>
      <rects>
        <_>
          8 5 8 4 -1.</_>
        <_>
          8 5 4 2 2.</_>
        <_>
          12 7 4 2 2.</_></rects>
      <tilted>0</tilted></_>
    <_>
      <rects>
        <_>
          9 0 4 1 -1.</_>
        <_>
          11 0 2 1 2.</_></rects>
      <tilted>0</tilted></_>
    <_>
      <rects>
        <_>
          9 0 6 4 -1.</_>
        <_>
          11 0 2 4 2.</_></rects>
      <tilted>0</tilted></_>
    <_>
      <rects>
        <_>
          9 1 13 2 -1.</_>
        <_>
          9 2 13 1 2.</_></rects>
      <tilted>0</tilted></_>
    <_>
      <rects>
        <_>
          9 6 3 2 -1.</_>
        <_>
          9 7 3 1 2.</_></rects>
      <tilted>0</tilted></_>
    <_>
      <rects>
        <_>
          9 11 2 1 -1.</_>
        <_>
          10 11 1 1 2.</_></rects>
      <tilted>0</tilted></_>
    <_>
      <rects>
        <_>
          9 14 2 6 -1.</_>
        <_>
          9 14 1 3 2.</_>
        <_>
          10 17 1 3 2.</_></rects>
      <tilted>0</tilted></_>
    <_>
      <rects>
        <_>
          10 1 3 14 -1.</_>
        <_>
          10 8 3 7 2.</_></rects>
      <tilted>0</tilted></_>
    <_>
      <rects>
        <_>
          10 5 10 12 -1.</_>
        <_>
          10 5 5 6 2.</_>
        <_>
          15 11 5 6 2.</_></rects>
      <tilted>0</tilted></_>
    <_>
      <rects>
        <_>
          10 5 12 14 -1.</_>
        <_>
          10 5 6 7 2.</_>
        <_>
          16 12 6 7 2.</_></rects>
      <tilted>0</tilted></_>
    <_>
      <rects>
        <_>
          10 10 8 2 -1.</_>
        <_>
          14 10 4 2 2.</_></rects>
      <tilted>0</tilted></_>
    <_>
      <rects>
        <_>
          11 0 9 2 -1.</_>
        <_>
          11 1 9 1 2.</_></rects>
      <tilted>0</tilted></_>
    <_>
      <rects>
        <_>
          11 0 9 8 -1.</_>
        <_>
          11 4 9 4 2.</_></rects>
      <tilted>0</tilted></_>
    <_>
      <rects>
        <_>
          11 6 9 4 -1.</_>
        <_>
          11 8 9 2 2.</_></rects>
      <tilted>0</tilted></_>
    <_>
      <rects>
        <_>
          12 2 2 1 -1.</_>
        <_>
          13 2 1 1 2.</_></rects>
      <tilted>0</tilted></_>
    <_>
      <rects>
        <_>
          12 6 6 3 -1.</_>
        <_>
          12 7 6 1 2.</_></rects>
      <tilted>0</tilted></_>
    <_>
      <rects>
        <_>
          12 13 10 6 -1.</_>
        <_>
          17 13 5 6 2.</_></rects>
      <tilted>0</tilted></_>
    <_>
      <rects>
        <_>
          13 8 2 8 -1.</_>
        <_>
          13 8 1 4 2.</_>
        <_>
          14 12 1 4 2.</_></rects>
      <tilted>0</tilted></_>
    <_>
      <rects>
        <_>
          13 10 4 4 -1.</_>
        <_>
          13 10 2 2 2.</_>
        <_>
          15 12 2 2 2.</_></rects>
      <tilted>0</tilted></_>
    <_>
      <rects>
        <_>
          14 2 8 7 -1.</_>
        <_>
          18 2 4 7 2.</_></rects>
      <tilted>0</tilted></_>
    <_>
      <rects>
        <_>
          14 11 2 4 -1.</_>
        <_>
          14 13 2 2 2.</_></rects>
      <tilted>0</tilted></_>
    <_>
      <rects>
        <_>
          15 0 6 6 -1.</_>
        <_>
          15 3 6 3 2.</_></rects>
      <tilted>0</tilted></_>
    <_>
      <rects>
        <_>
          15 5 3 2 -1.</_>
        <_>
          15 6 3 1 2.</_></rects>
      <tilted>0</tilted></_>
    <_>
      <rects>
        <_>
          15 18 2 2 -1.</_>
        <_>
          15 18 1 1 2.</_>
        <_>
          16 19 1 1 2.</_></rects>
      <tilted>0</tilted></_>
    <_>
      <rects>
        <_>
          15 19 1 2 -1.</_>
        <_>
          15 20 1 1 2.</_></rects>
      <tilted>0</tilted></_>
    <_>
      <rects>
        <_>
          16 3 6 4 -1.</_>
        <_>
          19 3 3 4 2.</_></rects>
      <tilted>0</tilted></_>
    <_>
      <rects>
        <_>
          17 19 2 2 -1.</_>
        <_>
          17 19 1 1 2.</_>
        <_>
          18 20 1 1 2.</_></rects>
      <tilted>0</tilted></_>
    <_>
      <rects>
        <_>
          17 20 4 2 -1.</_>
        <_>
          19 20 2 2 2.</_></rects>
      <tilted>0</tilted></_>
    <_>
      <rects>
        <_>
          18 1 4 2 -1.</_>
        <_>
          18 1 2 1 2.</_>
        <_>
          20 2 2 1 2.</_></rects>
      <tilted>0</tilted></_>
    <_>
      <rects>
        <_>
          18 15 1 2 -1.</_>
        <_>
          18 16 1 1 2.</_></rects>
      <tilted>0</tilted></_>
    <_>
      <rects>
        <_>
          18 19 2 3 -1.</_>
        <_>
          19 19 1 3 2.</_></rects>
      <tilted>0</tilted></_>
    <_>
      <rects>
        <_>
          19 4 3 2 -1.</_>
        <_>
          20 4 1 2 2.</_></rects>
      <tilted>0</tilted></_>
    <_>
      <rects>
        <_>
          19 11 1 4 -1.</_>
        <_>
          19 13 1 2 2.</_></rects>
      <tilted>0</tilted></_>
    <_>
      <rects>
        <_>
          21 1 1 2 -1.</_>
        <_>
          21 2 1 1 2.</_></rects>
      <tilted>0</tilted></_>
    <_>
      <rects>
        <_>
          21 17 1 4 -1.</_>
        <_>
          21 19 1 2 2.</_></rects>
      <tilted>0</tilted></_></features></cascade>
</opencv_storage>
