<?xml version="1.0"?>
<opencv_storage>
<cascade>
  <stageType>BOOST</stageType>
  <featureType>HAAR</featureType>
  <height>20</height>
  <width>20</width>
  <stageParams>
    <boostType>GAB</boostType>
    <minHitRate>9.9500000476837158e-01</minHitRate>
    <maxFalseAlarm>5.0000000000000000e-01</maxFalseAlarm>
    <weightTrimRate>9.4999999999999996e-01</weightTrimRate>
    <maxDepth>1</maxDepth>
    <maxWeakCount>100</maxWeakCount></stageParams>
  <featureParams>
    <maxCatCount>0</maxCatCount>
    <featSize>1</featSize>
    <mode>BASIC</mode></featureParams>
  <stageNum>9</stageNum>
  <stages>
    <!-- stage 0 -->
    <_>
      <maxWeakCount>3</maxWeakCount>
      <stageThreshold>-9.4125032424926758e-01</stageThreshold>
      <weakClassifiers>
        <_>
          <internalNodes>
            0 -1 14 -8.4002405405044556e-02</internalNodes>
          <leafValues>
            8.3925813436508179e-01 -8.9162564277648926e-01</leafValues></_>
        <_>
          <internalNodes>
            0 -1 9 8.7862938642501831e-02</internalNodes>
          <leafValues>
            -8.5792231559753418e-01 7.8941428661346436e-01</leafValues></_>
        <_>
          <internalNodes>
            0 -1 1 3.7342730909585953e-02</internalNodes>
          <leafValues>
            -7.3864495754241943e-01 8.0829763412475586e-01</leafValues></_></weakClassifiers></_>
    <!-- stage 1 -->
    <_>
      <maxWeakCount>3</maxWeakCount>
      <stageThreshold>-9.0003693103790283e-01</stageThreshold>
      <weakClassifiers>
        <_>
          <internalNodes>
            0 -1 17 4.8021681606769562e-02</internalNodes>
          <leafValues>
            -8.8505744934082031e-01 6.2942779064178467e-01</leafValues></_>
        <_>
          <internalNodes>
            0 -1 16 -2.5741349905729294e-02</internalNodes>
          <leafValues>
            7.3789042234420776e-01 -6.7228710651397705e-01</leafValues></_>
        <_>
          <internalNodes>
            0 -1 0 1.6232509166002274e-02</internalNodes>
          <leafValues>
            -6.1754715442657471e-01 6.5730768442153931e-01</leafValues></_></weakClassifiers></_>
    <!-- stage 2 -->
    <_>
      <maxWeakCount>4</maxWeakCount>
      <stageThreshold>-2.8808894753456116e-01</stageThreshold>
      <weakClassifiers>
        <_>
          <internalNodes>
            0 -1 20 -1.5252638608217239e-02</internalNodes>
          <leafValues>
            8.1290322542190552e-01 -6.8421053886413574e-01</leafValues></_>
        <_>
          <internalNodes>
            0 -1 15 5.6774640688672662e-04</internalNodes>
          <leafValues>
            -9.9396044015884399e-01 5.0393420457839966e-01</leafValues></_>
        <_>
          <internalNodes>
            0 -1 4 1.1176283657550812e-01</internalNodes>
          <leafValues>
            -6.6389447450637817e-01 6.7056304216384888e-01</leafValues></_>
        <_>
          <internalNodes>
            0 -1 3 8.3572398871183395e-03</internalNodes>
          <leafValues>
            -7.7837562561035156e-01 5.6165432929992676e-01</leafValues></_></weakClassifiers></_>
    <!-- stage 3 -->
    <_>
      <maxWeakCount>3</maxWeakCount>
      <stageThreshold>-7.2229552268981934e-01</stageThreshold>
      <weakClassifiers>
        <_>
          <internalNodes>
            0 -1 12 -1.6165733337402344e-01</internalNodes>
          <leafValues>
            7.9638749361038208e-01 -6.0000002384185791e-01</leafValues></_>
        <_>
          <internalNodes>
            0 -1 11 1.7667794600129128e-04</internalNodes>
          <leafValues>
            5.3753584623336792e-01 -9.3288189172744751e-01</leafValues></_>
        <_>
          <internalNodes>
            0 -1 25 3.1098574399948120e-03</internalNodes>
          <leafValues>
            -6.5983134508132935e-01 7.1595591306686401e-01</leafValues></_></weakClassifiers></_>
    <!-- stage 4 -->
    <_>
      <maxWeakCount>1</maxWeakCount>
      <stageThreshold>7.2482270002365112e-01</stageThreshold>
      <weakClassifiers>
        <_>
          <internalNodes>
            0 -1 11 -1.3702610158361495e-04</internalNodes>
          <leafValues>
            -9.8173516988754272e-01 7.2482270002365112e-01</leafValues></_></weakClassifiers></_>
    <!-- stage 5 -->
    <_>
      <maxWeakCount>3</maxWeakCount>
      <stageThreshold>-7.5388103723526001e-01</stageThreshold>
      <weakClassifiers>
        <_>
          <internalNodes>
            0 -1 22 -6.1157159507274628e-03</internalNodes>
          <leafValues>
            7.7777779102325439e-01 -6.1716169118881226e-01</leafValues></_>
        <_>
          <internalNodes>
            0 -1 7 2.5692739291116595e-04</internalNodes>
          <leafValues>
            5.4389160871505737e-01 -9.2061644792556763e-01</leafValues></_>
        <_>
          <internalNodes>
            0 -1 19 -2.0690809935331345e-02</internalNodes>
          <leafValues>
            6.5903168916702271e-01 -6.8061089515686035e-01</leafValues></_></weakClassifiers></_>
    <!-- stage 6 -->
    <_>
      <maxWeakCount>2</maxWeakCount>
      <stageThreshold>-3.3526575565338135e-01</stageThreshold>
      <weakClassifiers>
        <_>
          <internalNodes>
            0 -1 8 -2.1590062533505261e-04</internalNodes>
          <leafValues>
            -9.6347033977508545e-01 7.1914893388748169e-01</leafValues></_>
        <_>
          <internalNodes>
            0 -1 26 1.7031556926667690e-03</internalNodes>
          <leafValues>
            -7.1811974048614502e-01 6.2820458412170410e-01</leafValues></_></weakClassifiers></_>
    <!-- stage 7 -->
    <_>
      <maxWeakCount>4</maxWeakCount>
      <stageThreshold>-5.4351210594177246e-01</stageThreshold>
      <weakClassifiers>
        <_>
          <internalNodes>
            0 -1 2 1.9549529533833265e-03</internalNodes>
          <leafValues>
            -8.3177572488784790e-01 6.6760563850402832e-01</leafValues></_>
        <_>
          <internalNodes>
            0 -1 23 -2.6896642521023750e-02</internalNodes>
          <leafValues>
            6.2537825107574463e-01 -6.6657167673110962e-01</leafValues></_>
        <_>
          <internalNodes>
            0 -1 5 5.4831575602293015e-02</internalNodes>
          <leafValues>
            -7.4141329526901245e-01 5.5363202095031738e-01</leafValues></_>
        <_>
          <internalNodes>
            0 -1 6 4.1016109753400087e-04</internalNodes>
          <leafValues>
            4.0120327472686768e-01 -9.6977764368057251e-01</leafValues></_></weakClassifiers></_>
    <!-- stage 8 -->
    <_>
      <maxWeakCount>5</maxWeakCount>
      <stageThreshold>-2.5434064865112305e-01</stageThreshold>
      <weakClassifiers>
        <_>
          <internalNodes>
            0 -1 24 9.4228237867355347e-03</internalNodes>
          <leafValues>
            -5.4397392272949219e-01 7.5040519237518311e-01</leafValues></_>
        <_>
          <internalNodes>
            0 -1 10 2.6462314417585731e-04</internalNodes>
          <leafValues>
            -8.5215216875076294e-01 5.0221592187881470e-01</leafValues></_>
        <_>
          <internalNodes>
            0 -1 21 -2.3390753194689751e-03</internalNodes>
          <leafValues>
            3.9584931731224060e-01 -8.1682366132736206e-01</leafValues></_>
        <_>
          <internalNodes>
            0 -1 13 -1.8710241420194507e-04</internalNodes>
          <leafValues>
            -9.6932375431060791e-01 3.3264422416687012e-01</leafValues></_>
        <_>
          <internalNodes>
            0 -1 18 -6.3221752643585205e-02</internalNodes>
          <leafValues>
            4.1329193115234375e-01 -7.2126722335815430e-01</leafValues></_></weakClassifiers></_></stages>
  <features>
    <_>
      <rects>
        <_>
          0 3 4 10 -1.</_>
        <_>
          0 3 2 5 2.</_>
        <_>
          2 8 2 5 2.</_></rects>
      <tilted>0</tilted></_>
    <_>
      <rects>
        <_>
          0 7 6 7 -1.</_>
        <_>
          3 7 3 7 2.</_></rects>
      <tilted>0</tilted></_>
    <_>
      <rects>
        <_>
          0 12 12 1 -1.</_>
        <_>
          6 12 6 1 2.</_></rects>
      <tilted>0</tilted></_>
    <_>
      <rects>
        <_>
          0 13 6 2 -1.</_>
        <_>
          3 13 3 2 2.</_></rects>
      <tilted>0</tilted></_>
    <_>
      <rects>
        <_>
          2 4 10 8 -1.</_>
        <_>
          2 8 10 4 2.</_></rects>
      <tilted>0</tilted></_>
    <_>
      <rects>
        <_>
          3 5 10 6 -1.</_>
        <_>
          3 8 10 3 2.</_></rects>
      <tilted>0</tilted></_>
    <_>
      <rects>
        <_>
          3 11 4 4 -1.</_>
        <_>
          3 13 4 2 2.</_></rects>
      <tilted>0</tilted></_>
    <_>
      <rects>
        <_>
          4 12 6 2 -1.</_>
        <_>
          7 12 3 2 2.</_></rects>
      <tilted>0</tilted></_>
    <_>
      <rects>
        <_>
          4 13 6 2 -1.</_>
        <_>
          7 13 3 2 2.</_></rects>
      <tilted>0</tilted></_>
    <_>
      <rects>
        <_>
          5 3 7 10 -1.</_>
        <_>
          5 8 7 5 2.</_></rects>
      <tilted>0</tilted></_>
    <_>
      <rects>
        <_>
          5 10 6 4 -1.</_>
        <_>
          5 10 3 2 2.</_>
        <_>
          8 12 3 2 2.</_></rects>
      <tilted>0</tilted></_>
    <_>
      <rects>
        <_>
          5 11 2 2 -1.</_>
        <_>
          5 12 2 1 2.</_></rects>
      <tilted>0</tilted></_>
    <_>
      <rects>
        <_>
          6 9 14 9 -1.</_>
        <_>
          13 9 7 9 2.</_></rects>
      <tilted>0</tilted></_>
    <_>
      <rects>
        <_>
          6 15 4 2 -1.</_>
        <_>
          6 15 2 1 2.</_>
        <_>
          8 16 2 1 2.</_></rects>
      <tilted>0</tilted></_>
    <_>
      <rects>
        <_>
          7 8 10 10 -1.</_>
        <_>
          12 8 5 10 2.</_></rects>
      <tilted>0</tilted></_>
    <_>
      <rects>
        <_>
          7 9 3 6 -1.</_>
        <_>
          7 12 3 3 2.</_></rects>
      <tilted>0</tilted></_>
    <_>
      <rects>
        <_>
          7 16 6 4 -1.</_>
        <_>
          7 18 6 2 2.</_></rects>
      <tilted>0</tilted></_>
    <_>
      <rects>
        <_>
          8 3 3 14 -1.</_>
        <_>
          8 10 3 7 2.</_></rects>
      <tilted>0</tilted></_>
    <_>
      <rects>
        <_>
          8 3 12 10 -1.</_>
        <_>
          8 3 6 5 2.</_>
        <_>
          14 8 6 5 2.</_></rects>
      <tilted>0</tilted></_>
    <_>
      <rects>
        <_>
          9 4 6 6 -1.</_>
        <_>
          9 4 3 3 2.</_>
        <_>
          12 7 3 3 2.</_></rects>
      <tilted>0</tilted></_>
    <_>
      <rects>
        <_>
          9 8 6 3 -1.</_>
        <_>
          12 8 3 3 2.</_></rects>
      <tilted>0</tilted></_>
    <_>
      <rects>
        <_>
          9 16 1 4 -1.</_>
        <_>
          9 18 1 2 2.</_></rects>
      <tilted>0</tilted></_>
    <_>
      <rects>
        <_>
          9 16 2 4 -1.</_>
        <_>
          9 18 2 2 2.</_></rects>
      <tilted>0</tilted></_>
    <_>
      <rects>
        <_>
          13 6 6 14 -1.</_>
        <_>
          13 6 3 7 2.</_>
        <_>
          16 13 3 7 2.</_></rects>
      <tilted>0</tilted></_>
    <_>
      <rects>
        <_>
          13 8 6 3 -1.</_>
        <_>
          16 8 3 3 2.</_></rects>
      <tilted>0</tilted></_>
    <_>
      <rects>
        <_>
          16 8 2 3 -1.</_>
        <_>
          17 8 1 3 2.</_></rects>
      <tilted>0</tilted></_>
    <_>
      <rects>
        <_>
          16 9 2 2 -1.</_>
        <_>
          17 9 1 2 2.</_></rects>
      <tilted>0</tilted></_></features></cascade>
</opencv_storage>
